{"learner":{"attributes":{},"feature_names":["recursive_iife_depth","assigns_to_cleanup_token","optimized_function_with_branching_on_input_type","returns_param_directly","uses_ref_cast_or_call_ref","no_object_allocation_in_optimized_function","uses_proxy_on_regex_like_object","has_wasm","uses_optimization_directives","undefined_variable_usage","flags_indicate_jit_gc_stress","unbounded_control_flow","uses_jit_intrinsics","manipulates_array","uses_reflection","uses_typed_array","function_hotness","type_diversion_var","type_diversion_func_args","object_shape_mutation","typedarray_dv_usage","exception_handling","use_of_eval_function","control_flow_graph_blocks","control_flow_max_nesting","allocation_pressure","has_maglev_or_turbofan_opt","assignments_to_young_space_objects","object_property_growth_rate","loop_count_high_alloc","function_complexity_score","debugprint_call_count","use_of_uncommon_runtime_hooks"],"feature_types":["int","i","i","i","i","i","i","i","i","i","i","i","i","i","i","i","int","int","int","int","int","int","int","int","int","i","i","i","i","i","int","int","i"],"gradient_booster":{"model":{"gbtree_model_param":{"num_parallel_tree":"1","num_trees":"200"},"iteration_indptr":[0,1,2,3,4,5,6,7,8,9,10,11,12,13,14,15,16,17,18,19,20,21,22,23,24,25,26,27,28,29,30,31,32,33,34,35,36,37,38,39,40,41,42,43,44,45,46,47,48,49,50,51,52,53,54,55,56,57,58,59,60,61,62,63,64,65,66,67,68,69,70,71,72,73,74,75,76,77,78,79,80,81,82,83,84,85,86,87,88,89,90,91,92,93,94,95,96,97,98,99,100,101,102,103,104,105,106,107,108,109,110,111,112,113,114,115,116,117,118,119,120,121,122,123,124,125,126,127,128,129,130,131,132,133,134,135,136,137,138,139,140,141,142,143,144,145,146,147,148,149,150,151,152,153,154,155,156,157,158,159,160,161,162,163,164,165,166,167,168,169,170,171,172,173,174,175,176,177,178,179,180,181,182,183,184,185,186,187,188,189,190,191,192,193,194,195,196,197,198,199,200],"tree_info":[0,0,0,0,0,0,0,0,0,0,0,0,0,0,0,0,0,0,0,0,0,0,0,0,0,0,0,0,0,0,0,0,0,0,0,0,0,0,0,0,0,0,0,0,0,0,0,0,0,0,0,0,0,0,0,0,0,0,0,0,0,0,0,0,0,0,0,0,0,0,0,0,0,0,0,0,0,0,0,0,0,0,0,0,0,0,0,0,0,0,0,0,0,0,0,0,0,0,0,0,0,0,0,0,0,0,0,0,0,0,0,0,0,0,0,0,0,0,0,0,0,0,0,0,0,0,0,0,0,0,0,0,0,0,0,0,0,0,0,0,0,0,0,0,0,0,0,0,0,0,0,0,0,0,0,0,0,0,0,0,0,0,0,0,0,0,0,0,0,0,0,0,0,0,0,0,0,0,0,0,0,0,0,0,0,0,0,0,0,0,0,0,0,0,0,0,0,0,0,0],"trees":[{"base_weights":[1.4660042E-8,-4.8281255E-1,1.9156653E0,-7.0050037E-1,1.8354603E0,5.919437E-1,1.3604409E0,-9.1347474E-1,6.676024E-1,5.890692E-1,-4.4000003E-1,5.0987774E-1,5.465667E-1,-4.5847267E-1,-1.6251118E0,8.858023E-1,-5.4146343E-1,-4.666667E-1,5.17097E-1,2.5825448E-2,-1.1240451E0,-1.6620247E0,3.401859E-1,1.0192982E0,-5E-1,1.1108366E-1,-1.7941259E-1,-4.456225E-1,3.214658E-1,-3.5757482E-1,-5.345742E-1,1.2068802E-1,4.4394732E-1],"categories":[],"categories_nodes":[],"categories_segments":[],"categories_sizes":[],"default_left":[0,0,0,0,0,0,0,0,0,0,0,0,0,0,0,0,0,0,0,0,0,0,0,0,0,0,0,0,0,0,0,0,0],"id":0,"left_children":[1,3,5,7,9,-1,11,13,15,-1,-1,17,-1,19,21,23,-1,-1,-1,25,27,29,-1,31,-1,-1,-1,-1,-1,-1,-1,-1,-1],"loss_changes":[1.1441102E3,4.9988568E2,5.2626343E0,2.6398187E2,3.8872437E1,0E0,9.503784E0,2.526485E2,6.759834E1,0E0,0E0,2.9599619E1,0E0,1.5434796E2,3.2928955E1,4.0232155E1,0E0,0E0,0E0,5.9981297E1,1.6159167E2,1.4851929E1,0E0,3.011692E1,0E0,0E0,0E0,0E0,0E0,0E0,0E0,0E0,0E0],"parents":[2147483647,0,0,1,1,2,2,3,3,4,4,6,6,7,7,8,8,11,11,13,13,14,14,15,15,19,19,20,20,21,21,23,23],"right_children":[2,4,6,8,10,-1,12,14,16,-1,-1,18,-1,20,22,24,-1,-1,-1,26,28,30,-1,32,-1,-1,-1,-1,-1,-1,-1,-1,-1],"split_conditions":[1E0,1E0,1E0,1E0,1E0,5.919437E-1,1E0,3E0,1.5E1,5.890692E-1,-4.4000003E-1,1E0,5.465667E-1,1E0,1E0,1E0,-5.4146343E-1,-4.666667E-1,5.17097E-1,1E0,1E0,4E0,3.401859E-1,3E0,-5E-1,1.1108366E-1,-1.7941259E-1,-4.456225E-1,3.214658E-1,-3.5757482E-1,-5.345742E-1,1.2068802E-1,4.4394732E-1],"split_indices":[7,9,12,29,2,0,16,30,30,0,0,4,0,12,31,5,0,0,0,18,21,30,0,24,0,0,0,0,0,0,0,0,0],"split_type":[0,0,0,0,0,0,0,0,0,0,0,0,0,0,0,0,0,0,0,0,0,0,0,0,0,0,0,0,0,0,0,0,0],"sum_hessian":[1.235E3,9.8699243E2,2.4800758E2,9.0290656E2,8.408586E1,2.2242677E2,2.5580809E1,7.8157074E2,1.2133586E2,8.133586E1,2.75E0,9.737373E0,1.5843434E1,4.7775253E2,3.0381818E2,1.1208586E2,9.25E0,3.5E0,6.237374E0,2.770909E2,2.0066162E2,3.001995E2,3.618687E0,1.0708586E2,5E0,1.7878535E2,9.830556E1,1.7258081E2,2.8080809E1,6.3224747E1,2.3697475E2,4.6568184E1,6.0517677E1],"tree_param":{"num_deleted":"0","num_feature":"33","num_nodes":"33","size_leaf_vector":"1"}},{"base_weights":[1.1172325E-3,-3.56045E-1,1.481294E0,-5.147776E-1,1.4151144E0,4.5784962E-1,1.0518376E0,-5.9847945E-1,1.7395061E0,4.5726773E-1,-3.7875193E-1,3.6215457E-1,4.2905927E-1,-2.2644857E-1,-1.0862182E0,5.465491E-1,2.4956593E-1,-3.9268947E-1,4.088466E-1,-5.121945E-2,-4.9000916E-1,-1.5498923E0,-7.722713E-1,-6.614186E-2,2.8411475E-1,-4.9007383E-1,-1.7110148E-1,-1.2399058E-1,-4.8312497E-1],"categories":[],"categories_nodes":[],"categories_segments":[],"categories_sizes":[],"default_left":[0,0,0,0,0,0,0,0,0,0,0,0,0,0,0,0,0,0,0,0,0,0,0,0,0,0,0,0,0],"id":1,"left_children":[1,3,5,7,9,-1,11,13,15,-1,-1,17,-1,19,21,-1,-1,-1,-1,23,-1,25,27,-1,-1,-1,-1,-1,-1],"loss_changes":[6.2250665E2,2.6742297E2,2.805664E0,1.6544951E2,2.479741E1,0E0,5.9721413E0,1.5233414E2,8.343582E-1,0E0,0E0,1.8756783E1,0E0,1.1782883E2,5.1730835E1,0E0,0E0,0E0,0E0,7.2244064E1,0E0,1.1020264E1,6.516232E1,0E0,0E0,0E0,0E0,0E0,0E0],"parents":[2147483647,0,0,1,1,2,2,3,3,4,4,6,6,7,7,8,8,11,11,13,13,14,14,19,19,21,21,22,22],"right_children":[2,4,6,8,10,-1,12,14,16,-1,-1,18,-1,20,22,-1,-1,-1,-1,24,-1,26,28,-1,-1,-1,-1,-1,-1],"split_conditions":[1E0,1E0,1E0,1E0,1E0,4.5784962E-1,1.5E1,1E0,1E1,4.5726773E-1,-3.7875193E-1,1E0,4.2905927E-1,2E0,2E0,5.465491E-1,2.4956593E-1,-3.9268947E-1,4.088466E-1,1E0,-4.9000916E-1,1E0,1E0,-6.614186E-2,2.8411475E-1,-4.9007383E-1,-1.7110148E-1,-1.2399058E-1,-4.8312497E-1],"split_indices":[7,9,12,31,19,0,23,12,23,0,0,4,0,0,24,0,0,0,0,15,0,27,0,0,0,0,0,0,0],"split_type":[0,0,0,0,0,0,0,0,0,0,0,0,0,0,0,0,0,0,0,0,0,0,0,0,0,0,0,0,0],"sum_hessian":[1.1755131E3,9.4761566E2,2.2789738E2,8.703258E2,7.728988E1,2.040262E2,2.3871178E1,8.398756E2,3.0450169E1,7.4677574E1,2.6123075E0,9.149829E0,1.4721348E1,4.7728372E2,3.625919E2,2.6994429E1,3.455741E0,3.311506E0,5.838323E0,4.2534418E2,5.1939556E1,1.4479887E2,2.17793E2,3.6434906E2,6.0995125E1,1.3278673E2,1.2012156E1,1.535305E2,6.42625E1],"tree_param":{"num_deleted":"0","num_feature":"33","num_nodes":"29","size_leaf_vector":"1"}},{"base_weights":[3.4323665E-3,-2.7223983E-1,1.2772058E0,-3.9093497E-1,1.2147387E0,3.956643E-1,8.8804114E-1,-2.2155905E-1,-1.1670449E0,3.9502764E-1,-3.215069E-1,2.9591054E-1,3.6448154E-1,-4.773972E-1,4.685267E-1,-6.499705E-1,-4.1885474E-1,-3.333074E-1,3.498514E-1,-1.5812631E-1,-8.888145E-1,6.805138E-1,-4.4377837E-1,-1.2565693E0,8.526345E-1,-1.18021436E-1,1.4409237E-1,-3.1988928E-1,1.3946897E-1,2.465327E-1,-4.184903E-1,-4.7496942E-1,-1.1504612E-1,4.4499516E-1,-3.5795444E-1],"categories":[],"categories_nodes":[],"categories_segments":[],"categories_sizes":[],"default_left":[0,0,0,0,0,0,0,0,0,0,0,0,0,0,0,0,0,0,0,0,0,0,0,0,0,0,0,0,0,0,0,0,0,0,0],"id":2,"left_children":[1,3,5,7,9,-1,11,13,15,-1,-1,17,-1,19,21,23,-1,-1,-1,25,27,29,-1,31,33,-1,-1,-1,-1,-1,-1,-1,-1,-1,-1],"loss_changes":[3.8002963E2,1.5750787E2,1.9516907E0,1.0815261E2,1.6809608E1,0E0,3.838295E0,1.1996026E2,1.6569092E1,0E0,0E0,1.2359235E1,0E0,6.491463E1,7.69539E1,4.4061295E1,0E0,0E0,0E0,4.2259583E1,5.2437332E1,4.998091E1,0E0,9.09111E0,2.0040253E1,0E0,0E0,0E0,0E0,0E0,0E0,0E0,0E0,0E0,0E0],"parents":[2147483647,0,0,1,1,2,2,3,3,4,4,6,6,7,7,8,8,11,11,13,13,14,14,15,15,19,19,20,20,21,21,23,23,24,24],"right_children":[2,4,6,8,10,-1,12,14,16,-1,-1,18,-1,20,22,24,-1,-1,-1,26,28,30,-1,32,34,-1,-1,-1,-1,-1,-1,-1,-1,-1,-1],"split_conditions":[1E0,1E0,1E0,1E0,1E0,3.956643E-1,1.5E1,3E0,4E0,3.9502764E-1,-3.215069E-1,1E0,3.6448154E-1,2E0,1E0,3E0,-4.1885474E-1,-3.333074E-1,3.498514E-1,2E0,1E0,1.5E1,-4.4377837E-1,1E0,4E0,-1.18021436E-1,1.4409237E-1,-3.1988928E-1,1.3946897E-1,2.465327E-1,-4.184903E-1,-4.7496942E-1,-1.1504612E-1,4.4499516E-1,-3.5795444E-1],"split_indices":[7,9,12,0,19,0,23,24,30,0,0,4,0,30,5,23,0,0,0,24,13,30,0,3,23,0,0,0,0,0,0,0,0,0,0],"split_type":[0,0,0,0,0,0,0,0,0,0,0,0,0,0,0,0,0,0,0,0,0,0,0,0,0,0,0,0,0,0,0,0,0,0,0],"sum_hessian":[1.0802716E3,8.8871967E2,1.9155193E2,8.23706E2,6.501363E1,1.708652E2,2.0686716E1,6.772011E2,1.4650491E2,6.2642624E1,2.371007E0,8.035924E0,1.2650791E1,4.9426758E2,1.8293353E2,4.6165024E1,1.0033989E2,2.9653072E0,5.0706167E0,2.7907904E2,2.1518852E2,1.6556493E2,1.7368605E1,3.300479E1,1.3160232E1,2.0420744E2,7.4871605E1,1.904334E2,2.4755125E1,1.5557986E2,9.985055E0,2.3426449E1,9.5783415E0,1.0269354E1,2.890878E0],"tree_param":{"num_deleted":"0","num_feature":"33","num_nodes":"35","size_leaf_vector":"1"}},{"base_weights":[3.0903714E-3,-2.141408E-1,1.15648E0,-3.0434373E-1,1.0944245E0,1.1977845E0,7.816529E-1,-1.9871697E-1,-3.7812144E-1,3.592165E-1,-2.9501826E-1,3.6136413E-1,1.5290758E-1,2.3503196E-1,3.256101E-1,-3.271774E-1,5.6026596E-1,-3.0353433E-1,3.1076297E-1,-1.1455771E-1,-8.524394E-1,7.305671E-1,-4.8984396E-1,-8.386389E-2,2.6751754E-1,-3.5002345E-1,-1.2497232E-1,2.4139552E-1,-4.0980658E-1,-4.3884745E-1,2.2481576E-1],"categories":[],"categories_nodes":[],"categories_segments":[],"categories_sizes":[],"default_left":[0,0,0,0,0,0,0,0,0,0,0,0,0,0,0,0,0,0,0,0,0,0,0,0,0,0,0,0,0,0,0],"id":3,"left_children":[1,3,5,7,9,11,13,15,-1,-1,-1,-1,-1,17,-1,19,21,-1,-1,23,25,27,29,-1,-1,-1,-1,-1,-1,-1,-1],"loss_changes":[2.4604478E2,9.78763E1,1.4733887E0,7.789964E1,1.2625183E1,2.9647827E-2,2.7874699E0,6.824447E1,0E0,0E0,0E0,0E0,0E0,8.858592E0,0E0,6.6648735E1,1.8494661E1,0E0,0E0,7.1074715E1,2.3084938E1,1.4715843E1,1.8881817E1,0E0,0E0,0E0,0E0,0E0,0E0,0E0,0E0],"parents":[2147483647,0,0,1,1,2,2,3,3,4,4,5,5,6,6,7,7,13,13,15,15,16,16,19,19,20,20,21,21,22,22],"right_children":[2,4,6,8,10,12,14,16,-1,-1,-1,-1,-1,18,-1,20,22,-1,-1,24,26,28,30,-1,-1,-1,-1,-1,-1,-1,-1],"split_conditions":[1E0,1E0,1E0,2E0,1E0,7E0,1E0,1E0,-3.7812144E-1,3.592165E-1,-2.9501826E-1,3.6136413E-1,1.5290758E-1,1E0,3.256101E-1,3E0,1E0,-3.0353433E-1,3.1076297E-1,1E0,3E0,4E0,1E0,-8.386389E-2,2.6751754E-1,-3.5002345E-1,-1.2497232E-1,2.4139552E-1,-4.0980658E-1,-4.3884745E-1,2.2481576E-1],"split_indices":[7,9,12,0,2,0,16,29,0,0,0,0,0,4,0,30,8,0,0,21,23,16,15,0,0,0,0,0,0,0,0],"split_type":[0,0,0,0,0,0,0,0,0,0,0,0,0,0,0,0,0,0,0,0,0,0,0,0,0,0,0,0,0,0,0],"sum_hessian":[9.800218E2,8.253823E2,1.5463945E2,7.7287354E2,5.2508823E1,1.3731253E2,1.7326908E1,6.970684E2,7.58051E1,5.0433388E1,2.0754368E0,1.3523293E2,2.079619E0,6.822218E0,1.0504691E1,5.96652E2,1.0041644E2,2.5651746E0,4.2570434E0,4.2559454E2,1.7105743E2,8.666576E1,1.3750688E1,3.6626456E2,5.932998E1,9.841371E1,7.2643715E1,8.430305E1,2.362702E0,7.6017475E0,6.14894E0],"tree_param":{"num_deleted":"0","num_feature":"33","num_nodes":"31","size_leaf_vector":"1"}},{"base_weights":[4.6426435E-3,-1.6739878E-1,1.0749259E0,-8.099094E-2,-1.1196634E0,1.1174675E0,7.015368E-1,4.266062E-2,-8.676451E-1,-3.5213667E-1,-3.7854325E-2,3.3759284E-1,1.3169296E-1,1.9711679E-1,2.9440033E-1,-1.7621876E-1,5.06451E-1,-1.0867786E0,8.852389E-1,2.1073112E-1,-2.2593711E-1,-2.7398103E-1,2.8140375E-1,7.3013365E-2,-4.8692182E-1,8.292936E-1,-1.1889304E-1,-1.2516414E0,3.5576037E-1,5.8737826E-1,-3.0260766E-1,1.0220112E-1,-2.7057272E-1,-3.9184618E-1,1.1271048E-2,3.929253E-2,3.6166668E-1,-3.224936E-1,1.5014634E-1,-3.900728E-1,2.1073112E-1,-4.1040954E-1,3.1036413E-1],"categories":[],"categories_nodes":[],"categories_segments":[],"categories_sizes":[],"default_left":[0,0,0,0,0,0,0,0,0,0,0,0,0,0,0,0,0,0,0,0,0,0,0,0,0,0,0,0,0,0,0,0,0,0,0,0,0,0,0,0,0,0,0],"id":4,"left_children":[1,3,5,7,9,11,13,15,17,-1,19,-1,-1,21,-1,23,25,27,29,-1,-1,-1,-1,31,33,35,37,39,41,-1,-1,-1,-1,-1,-1,-1,-1,-1,-1,-1,-1,-1,-1],"loss_changes":[1.6398363E2,6.3042313E1,1.1750946E0,6.85658E1,3.6884384E0,8.610535E-2,1.966052E0,6.1989464E1,3.7739082E1,0E0,2.684638E0,0E0,0E0,6.3772326E0,0E0,3.2172398E1,3.9620945E1,2.07919E1,2.4709326E1,0E0,0E0,0E0,0E0,6.062527E1,7.947681E1,3.3798645E1,4.052751E1,8.22612E0,1.2593755E1,0E0,0E0,0E0,0E0,0E0,0E0,0E0,0E0,0E0,0E0,0E0,0E0,0E0,0E0],"parents":[2147483647,0,0,1,1,2,2,3,3,4,4,5,5,6,6,7,7,8,8,10,10,13,13,15,15,16,16,17,17,18,18,23,23,24,24,25,25,26,26,27,27,28,28],"right_children":[2,4,6,8,10,12,14,16,18,-1,20,-1,-1,22,-1,24,26,28,30,-1,-1,-1,-1,32,34,36,38,40,42,-1,-1,-1,-1,-1,-1,-1,-1,-1,-1,-1,-1,-1,-1],"split_conditions":[1E0,2E0,1E0,1E0,1E0,7E0,1.5E1,3E0,2E0,-3.5213667E-1,3E0,3.3759284E-1,1.3169296E-1,1E0,2.9440033E-1,1E0,4E0,1E0,2E0,2.1073112E-1,-2.2593711E-1,-2.7398103E-1,2.8140375E-1,1E0,2E0,2E0,3E0,1E0,1E0,5.8737826E-1,-3.0260766E-1,1.0220112E-1,-2.7057272E-1,-3.9184618E-1,1.1271048E-2,3.929253E-2,3.6166668E-1,-3.224936E-1,1.5014634E-1,-3.900728E-1,2.1073112E-1,-4.1040954E-1,3.1036413E-1],"split_indices":[7,0,12,5,9,0,23,24,17,0,0,0,0,4,0,18,23,21,30,0,0,0,0,12,24,23,18,9,23,0,0,0,0,0,0,0,0,0,0,0,0,0,0],"split_type":[0,0,0,0,0,0,0,0,0,0,0,0,0,0,0,0,0,0,0,0,0,0,0,0,0,0,0,0,0,0,0,0,0,0,0,0,0,0,0,0,0,0,0],"sum_hessian":[8.8859424E2,7.662654E2,1.2232884E2,7.0351404E2,6.275134E1,1.0802802E2,1.4300817E1,6.087694E2,9.474468E1,5.968036E1,3.070981E0,1.0614269E2,1.885327E0,5.7104683E0,8.590348E0,4.1400537E2,1.94764E2,8.455429E1,1.0190392E1,1.5179106E0,1.5530704E0,2.1922567E0,3.5182114E0,2.3015239E2,1.8385298E2,1.2823483E2,6.6529175E1,7.6000755E1,8.553529E0,6.484115E0,3.7062767E0,1.8108699E2,4.906539E1,7.11811E1,1.1267189E2,4.537317E1,8.2861664E1,2.5866177E1,4.0663E1,7.448285E1,1.5179106E0,2.1297016E0,6.4238267E0],"tree_param":{"num_deleted":"0","num_feature":"33","num_nodes":"43","size_leaf_vector":"1"}},{"base_weights":[1.5948557E-4,-1.376208E-1,1.0133222E0,-2.0252454E-1,9.9460065E-1,1.0581312E0,6.3523954E-1,-2.5474775E-1,1.2494473E0,3.2859522E-1,-2.5078148E-1,3.2030323E-1,1.13350146E-1,1.5077126E-1,2.7125373E-1,-8.499074E-2,-7.349312E-1,3.930333E-1,1.599031E-1,-2.5912282E-1,2.573272E-1,3.4523416E-2,-1.0764254E0,-9.5529634E-1,2.823769E-1,-7.833825E-2,1.0836863E-1,-3.9727283E-1,3.6713682E-2,-3.024999E-1,2.3150018E-1,2.2167273E-1,-3.0468312E-1],"categories":[],"categories_nodes":[],"categories_segments":[],"categories_sizes":[],"default_left":[0,0,0,0,0,0,0,0,0,0,0,0,0,0,0,0,0,0,0,0,0,0,0,0,0,0,0,0,0,0,0,0,0],"id":5,"left_children":[1,3,5,7,9,11,13,15,17,-1,-1,-1,-1,19,-1,21,23,-1,-1,-1,-1,25,27,29,31,-1,-1,-1,-1,-1,-1,-1,-1],"loss_changes":[1.1278062E2,5.246455E1,9.6635437E-1,5.1385708E1,8.055748E0,1.483841E-1,1.52492E0,5.299733E1,3.2527542E-1,0E0,0E0,0E0,0E0,4.8660903E0,0E0,5.7154472E1,3.8354057E1,0E0,0E0,0E0,0E0,4.1739708E1,1.5577282E1,1.3588585E1,1.9131592E1,0E0,0E0,0E0,0E0,0E0,0E0,0E0,0E0],"parents":[2147483647,0,0,1,1,2,2,3,3,4,4,5,5,6,6,7,7,8,8,13,13,15,15,16,16,21,21,22,22,23,23,24,24],"right_children":[2,4,6,8,10,12,14,16,18,-1,-1,-1,-1,20,-1,22,24,-1,-1,-1,-1,26,28,30,32,-1,-1,-1,-1,-1,-1,-1,-1],"split_conditions":[1E0,1E0,1E0,1E0,1E0,7E0,1E0,4E0,1E1,3.2859522E-1,-2.5078148E-1,3.2030323E-1,1.13350146E-1,1E0,2.7125373E-1,2E0,1E0,3.930333E-1,1.599031E-1,-2.5912282E-1,2.573272E-1,2E0,1E0,1E0,1E0,-7.833825E-2,1.0836863E-1,-3.9727283E-1,3.6713682E-2,-3.024999E-1,2.3150018E-1,2.2167273E-1,-3.0468312E-1],"split_indices":[7,9,12,31,2,0,16,30,23,0,0,0,0,4,0,18,15,0,0,0,0,24,21,20,0,0,0,0,0,0,0,0,0],"split_type":[0,0,0,0,0,0,0,0,0,0,0,0,0,0,0,0,0,0,0,0,0,0,0,0,0,0,0,0,0,0,0,0,0],"sum_hessian":[8.059207E2,7.1020404E2,9.571668E1,6.72476E2,3.772805E1,8.396658E1,1.1750099E1,6.499246E2,2.255135E1,3.6141193E1,1.5868552E0,8.224309E1,1.7234981E0,4.7514453E0,6.998654E0,4.8104135E2,1.688833E2,2.0026943E1,2.5244055E0,1.8602666E0,2.8911788E0,4.30153E2,5.0888336E1,1.3886409E2,3.0019215E1,2.2591379E2,2.0423923E2,4.2084064E1,8.804272E0,1.3513023E2,3.7338514E0,2.2526758E1,7.492456E0],"tree_param":{"num_deleted":"0","num_feature":"33","num_nodes":"33","size_leaf_vector":"1"}},{"base_weights":[2.4331682E-3,-1.0653131E-1,9.617442E-1,-1.2831704E-2,-7.7813727E-1,1.0096111E0,5.7615775E-1,8.8760644E-2,-7.4843544E-1,-2.481735E-1,-1.0017284E0,3.06447E-1,9.746018E-2,1.7485856E-1,2.7402657E-1,1.2754238E-1,-3.773912E-1,-9.771636E-1,6.9829994E-1,-6.412581E-1,6.501524E-1,-1.0823697E0,2.2407722E-1,-2.3758164E-1,2.0638941E-1,7.786523E-2,1.2119491E0,-1.1519432E0,3.2202244E-1,3.7691325E-1,-2.4609667E-1,4.8514208E-1,-3.8517478E-1,1.0194935E0,-2.0774736E-1,-3.4896824E-1,-2.951668E-1,1.819734E-3,2.6446572E-1,4.543166E-1,-3.387092E-2,1.4236463E-2,-3.576262E-1,-3.2416362E-1,2.4494655E-1,-2.7460545E-1,3.0496427E-1,1.479776E-1,3.8150176E-1,2.3537566E-1,-2.6684278E-1],"categories":[],"categories_nodes":[],"categories_segments":[],"categories_sizes":[],"default_left":[0,0,0,0,0,0,0,0,0,0,0,0,0,0,0,0,0,0,0,0,0,0,0,0,0,0,0,0,0,0,0,0,0,0,0,0,0,0,0,0,0,0,0,0,0,0,0,0,0,0,0],"id":6,"left_children":[1,3,5,7,9,11,13,15,17,19,21,-1,-1,23,-1,25,-1,27,29,31,33,35,-1,-1,-1,37,39,41,43,-1,-1,45,-1,47,-1,-1,49,-1,-1,-1,-1,-1,-1,-1,-1,-1,-1,-1,-1,-1,-1],"loss_changes":[7.7424355E1,4.184767E1,8.1272125E-1,4.3764576E1,9.39938E0,2.0400238E-1,1.2847111E0,2.7040977E1,2.4197575E1,9.417245E0,8.836727E0,0E0,0E0,3.5759368E0,0E0,2.6903933E1,0E0,1.4398968E1,9.746764E0,1.3821863E1,4.799462E0,3.1467514E0,0E0,0E0,0E0,2.7709354E1,8.939869E0,2.6889038E0,6.5046587E0,0E0,0E0,6.400246E0,0E0,2.8553343E-1,0E0,0E0,4.835229E0,0E0,0E0,0E0,0E0,0E0,0E0,0E0,0E0,0E0,0E0,0E0,0E0,0E0,0E0],"parents":[2147483647,0,0,1,1,2,2,3,3,4,4,5,5,6,6,7,7,8,8,9,9,10,10,13,13,15,15,17,17,18,18,19,19,20,20,21,21,25,25,26,26,27,27,28,28,31,31,33,33,36,36],"right_children":[2,4,6,8,10,12,14,16,18,20,22,-1,-1,24,-1,26,-1,28,30,32,34,36,-1,-1,-1,38,40,42,44,-1,-1,46,-1,48,-1,-1,50,-1,-1,-1,-1,-1,-1,-1,-1,-1,-1,-1,-1,-1,-1],"split_conditions":[1E0,1E0,1E0,1E0,1E0,7E0,1E0,1E0,2E0,3E0,1E0,3.06447E-1,9.746018E-2,1.5E1,2.7402657E-1,1E0,-3.773912E-1,1E0,2E0,1E0,4E0,1E0,2.2407722E-1,-2.3758164E-1,2.0638941E-1,1E0,4E0,1E0,1E0,3.7691325E-1,-2.4609667E-1,2E0,-3.8517478E-1,1E0,-2.0774736E-1,-3.4896824E-1,3E0,1.819734E-3,2.6446572E-1,4.543166E-1,-3.387092E-2,1.4236463E-2,-3.576262E-1,-3.2416362E-1,2.4494655E-1,-2.7460545E-1,3.0496427E-1,1.479776E-1,3.8150176E-1,2.3537566E-1,-2.6684278E-1],"split_indices":[7,0,12,5,18,0,4,26,17,23,6,0,0,23,0,10,0,21,30,30,23,11,0,0,0,2,23,32,23,0,0,24,0,16,0,0,30,0,0,0,0,0,0,0,0,0,0,0,0,0,0],"split_type":[0,0,0,0,0,0,0,0,0,0,0,0,0,0,0,0,0,0,0,0,0,0,0,0,0,0,0,0,0,0,0,0,0,0,0,0,0,0,0,0,0,0,0,0,0,0,0,0,0,0,0],"sum_hessian":[7.3870435E2,6.6415454E2,7.454983E1,5.8373364E2,8.042091E1,6.487752E1,9.672307E0,5.1367114E2,7.006248E1,2.4488155E1,5.5932762E1,6.3287823E1,1.5896947E0,5.1102524E0,4.5620546E0,5.00173E2,1.3498151E1,6.0778065E1,9.284411E0,1.7233414E1,7.2547417E0,5.3831295E1,2.1014686E0,1.5833931E0,3.5268593E0,4.792884E2,2.0884605E1,5.3671032E1,7.1070313E0,6.915664E0,2.368747E0,6.3495393E0,1.0883875E1,5.878372E0,1.3763695E0,4.838386E1,5.447431E0,4.4090643E2,3.8381954E1,1.6886635E1,3.9979699E0,1.7323036E0,5.193873E1,1.5435182E0,5.563513E0,1.5478208E0,4.801718E0,2.862025E0,3.016347E0,1.8202327E0,3.6271982E0],"tree_param":{"num_deleted":"0","num_feature":"33","num_nodes":"51","size_leaf_vector":"1"}},{"base_weights":[-6.6635147E-4,-8.616196E-2,9.1440713E-1,-1.3688335E-1,9.48884E-1,9.657696E-1,5.219355E-1,-6.3242406E-2,-8.596034E-1,3.128431E-1,-2.1892826E-1,2.9419076E-1,8.370503E-2,6.847073E-1,-3.613659E-2,-1.3733725E-1,8.274662E-1,-4.0439567E-1,1.4749786E-1,2.8838748E-1,2.5575283E-1,-5.1421463E-2,-9.3648E-1,6.096416E-1,5.218997E-1,-3.895092E-1,7.396754E-1,1.7533857E-2,1.3578478E-1,-5.5407163E-2,1.0083637E-1,-3.3589214E-1,4.609601E-2,8.35277E-2,3.4360188E-1,3.2148954E-1,2.7618373E-2],"categories":[],"categories_nodes":[],"categories_segments":[],"categories_sizes":[],"default_left":[0,0,0,0,0,0,0,0,0,0,0,0,0,0,0,0,0,0,0,0,0,0,0,0,0,0,0,0,0,0,0,0,0,0,0,0,0],"id":7,"left_children":[1,3,5,7,9,11,13,15,17,-1,-1,-1,-1,19,-1,21,23,-1,25,27,-1,29,31,33,-1,-1,35,-1,-1,-1,-1,-1,-1,-1,-1,-1,-1],"loss_changes":[5.407715E1,3.3316933E1,6.8653107E-1,3.2064457E1,5.436941E0,2.4759293E-1,1.0246878E0,3.6330353E1,2.7607872E1,0E0,0E0,0E0,0E0,2.4220705E-1,0E0,3.4794727E1,7.341675E0,0E0,1.731394E1,1.1305076E-1,0E0,2.3782356E1,9.996677E0,6.01091E0,0E0,0E0,2.951334E0,0E0,0E0,0E0,0E0,0E0,0E0,0E0,0E0,0E0,0E0],"parents":[2147483647,0,0,1,1,2,2,3,3,4,4,5,5,6,6,7,7,8,8,13,13,15,15,16,16,18,18,19,19,21,21,22,22,23,23,26,26],"right_children":[2,4,6,8,10,12,14,16,18,-1,-1,-1,-1,20,-1,22,24,-1,26,28,-1,30,32,34,-1,-1,36,-1,-1,-1,-1,-1,-1,-1,-1,-1,-1],"split_conditions":[1E0,1E0,1E0,6E0,1E0,7E0,2E0,1E0,1E0,3.128431E-1,-2.1892826E-1,2.9419076E-1,8.370503E-2,1E0,-3.613659E-2,1E0,1E0,-4.0439567E-1,1E0,1E0,2.5575283E-1,1E0,1E0,1E0,5.218997E-1,-3.895092E-1,1E0,1.7533857E-2,1.3578478E-1,-5.5407163E-2,1.0083637E-1,-3.3589214E-1,4.609601E-2,8.35277E-2,3.4360188E-1,3.2148954E-1,2.7618373E-2],"split_indices":[7,9,12,23,19,0,0,2,15,0,0,0,0,4,0,5,27,0,29,13,0,3,21,22,0,0,17,0,0,0,0,0,0,0,0,0,0],"split_type":[0,0,0,0,0,0,0,0,0,0,0,0,0,0,0,0,0,0,0,0,0,0,0,0,0,0,0,0,0,0,0,0,0,0,0,0,0],"sum_hessian":[6.8920917E2,6.311468E2,5.806241E1,6.024901E2,2.8656668E1,5.005147E1,8.010936E0,5.4776373E2,5.4726406E1,2.7496893E1,1.1597737E0,4.857209E1,1.4793804E0,6.3388877E0,1.6720481E0,5.0647748E2,4.128623E1,3.6626385E1,1.8100023E1,2.69422E0,3.6446679E0,4.5827292E2,4.820455E1,3.4674583E1,6.6116424E0,4.912683E0,1.3187341E1,1.687451E0,1.006769E0,3.4139624E2,1.168767E2,4.1247257E1,6.9572935E0,2.2365807E1,1.2308778E1,8.285561E0,4.9017797E0],"tree_param":{"num_deleted":"0","num_feature":"33","num_nodes":"37","size_leaf_vector":"1"}},{"base_weights":[1.0595593E-3,-6.600395E-2,8.607792E-1,6.315472E-3,-7.089986E-1,9.224827E-1,4.581512E-1,-3.0745402E-2,3.4044588E-1,-2.1169421E-1,-9.5556146E-1,2.8229794E-1,7.181925E-2,5.2492242E-2,2.472575E-1,-7.051083E-2,3.0685377E-1,-5.8909196E-1,5.8896995E-1,-1.0241619E0,1.8142907E-1,-4.0095505E-1,1.9422579E-1,7.7682145E-2,-3.7415272E-1,3.0970043E-1,-3.455629E-1,9.7905174E-2,2.9480886E-1,-3.3280882E-1,-2.0087199E-1,-2.5394478E-1,1.0224057E-1,1.0757702E-1,-9.869685E-2,-2.8732324E-1,-1.4495716E-2,-2.3652552E-1,2.2290684E-1,-2.1376626E-1,1.9014136E-1,2.0449668E-1,-2.3078008E-1],"categories":[],"categories_nodes":[],"categories_segments":[],"categories_sizes":[],"default_left":[0,0,0,0,0,0,0,0,0,0,0,0,0,0,0,0,0,0,0,0,0,0,0,0,0,0,0,0,0,0,0,0,0,0,0,0,0,0,0,0,0,0,0],"id":8,"left_children":[1,3,5,7,9,11,13,15,-1,17,19,-1,-1,21,-1,23,-1,25,27,29,-1,31,-1,33,35,37,-1,39,-1,-1,41,-1,-1,-1,-1,-1,-1,-1,-1,-1,-1,-1,-1],"loss_changes":[3.7379726E1,2.7971397E1,7.4287033E-1,2.2686926E1,7.2545376E0,2.766075E-1,1.1774386E0,2.2083055E1,0E0,6.8260756E0,4.9407425E0,0E0,0E0,1.5996445E0,0E0,2.2851503E1,0E0,7.9810224E0,1.3285713E0,2.515831E0,0E0,1.4241378E0,0E0,3.9149574E1,3.161833E1,3.7225375E0,0E0,2.358245E0,0E0,0E0,2.9736392E0,0E0,0E0,0E0,0E0,0E0,0E0,0E0,0E0,0E0,0E0,0E0,0E0],"parents":[2147483647,0,0,1,1,2,2,3,3,4,4,5,5,6,6,7,7,9,9,10,10,13,13,15,15,17,17,18,18,19,19,21,21,23,23,24,24,25,25,27,27,30,30],"right_children":[2,4,6,8,10,12,14,16,-1,18,20,-1,-1,22,-1,24,-1,26,28,30,-1,32,-1,34,36,38,-1,40,-1,-1,42,-1,-1,-1,-1,-1,-1,-1,-1,-1,-1,-1,-1],"split_conditions":[1E0,1E0,1E0,1E0,1E0,7E0,1E0,1E0,3.4044588E-1,3E0,1E0,2.8229794E-1,7.181925E-2,1E0,2.472575E-1,1E0,3.0685377E-1,1E0,1E0,1E0,1.8142907E-1,2.2E1,1.9422579E-1,1E0,2E0,2E0,-3.455629E-1,1E0,2.9480886E-1,-3.3280882E-1,3E0,-2.5394478E-1,1.0224057E-1,1.0757702E-1,-9.869685E-2,-2.8732324E-1,-1.4495716E-2,-2.3652552E-1,2.2290684E-1,-2.1376626E-1,1.9014136E-1,2.0449668E-1,-2.3078008E-1],"split_indices":[7,0,12,31,18,0,9,9,0,23,6,0,0,4,0,12,0,30,16,11,0,30,0,18,24,24,0,21,0,0,30,0,0,0,0,0,0,0,0,0,0,0,0],"split_type":[0,0,0,0,0,0,0,0,0,0,0,0,0,0,0,0,0,0,0,0,0,0,0,0,0,0,0,0,0,0,0,0,0,0,0,0,0,0,0,0,0,0,0],"sum_hessian":[6.4633997E2,6.004262E2,4.591377E1,5.406122E2,5.9814E1,3.8692863E1,7.220907E0,5.2436444E2,1.6247746E1,2.0442047E1,3.9371952E1,3.730442E1,1.3884432E0,3.9674473E0,3.25346E0,5.0619244E2,1.8172018E1,1.4072933E1,6.369114E0,3.8043E1,1.3289558E0,2.436452E0,1.5309954E0,3.4067136E2,1.655211E2,5.5919814E0,8.480951E0,3.3898613E0,2.9792523E0,3.416033E1,3.882668E0,1.4339693E0,1.0024825E0,2.0156134E2,1.3911E2,5.8608936E1,1.0691216E2,1.3503847E0,4.2415967E0,1.2180778E0,2.1717834E0,1.4429634E0,2.4397047E0],"tree_param":{"num_deleted":"0","num_feature":"33","num_nodes":"43","size_leaf_vector":"1"}},{"base_weights":[8.4379787E-4,-5.24248E-2,8.1363136E-1,4.4993074E-3,-6.511692E-1,2.5974745E-1,3.4725213E-1,5.465086E-2,-6.2990105E-1,-1.8699306E-1,-9.064913E-1,-2.1583666E-1,2.4639352E-1,-6.2638685E-2,4.324456E-1,-3.818706E-1,3.6224738E-1,-5.288497E-1,4.9346942E-1,-9.7920096E-1,1.6706343E-1,-1.12782575E-1,7.9211795E-1,2.3378983E-1,1.1339003E0,-3.5055944E-1,7.5230545E-1,2.3287906E-1,-3.1781134E-1,6.837241E-2,2.4787624E-1,-3.2055968E-1,-1.754902E-1,-2.123046E-3,-1.6877407E-1,1.20363586E-1,4.3148693E-1,9.512067E-2,-3.1689414E-1,3.6887035E-1,-1.7465433E-2,3.0499E-1,6.896585E-2,-2.1199201E-1,1.8095067E-1,-1.934819E-1,1.6152965E-1,1.8668091E-1,-2.1349733E-1],"categories":[],"categories_nodes":[],"categories_segments":[],"categories_sizes":[],"default_left":[0,0,0,0,0,0,0,0,0,0,0,0,0,0,0,0,0,0,0,0,0,0,0,0,0,0,0,0,0,0,0,0,0,0,0,0,0,0,0,0,0,0,0,0,0,0,0,0,0],"id":9,"left_children":[1,3,5,7,9,-1,11,13,15,17,19,-1,-1,21,23,-1,25,27,29,31,-1,33,35,37,39,-1,41,43,-1,45,-1,-1,47,-1,-1,-1,-1,-1,-1,-1,-1,-1,-1,-1,-1,-1,-1,-1,-1],"loss_changes":[2.6172768E1,1.9339588E1,6.0440826E-1,1.6549494E1,5.668804E0,0E0,3.3275905E0,2.1383816E1,2.4772484E1,4.6205697E0,3.899191E0,0E0,0E0,1.5890427E1,1.5663649E1,0E0,1.0291725E1,5.482798E0,9.0324605E-1,1.9945011E0,0E0,1.6594727E1,4.6145926E0,1.0040991E1,2.919159E0,0E0,1.585113E0,2.5620027E0,0E0,1.7116454E0,0E0,0E0,2.254977E0,0E0,0E0,0E0,0E0,0E0,0E0,0E0,0E0,0E0,0E0,0E0,0E0,0E0,0E0,0E0,0E0],"parents":[2147483647,0,0,1,1,2,2,3,3,4,4,6,6,7,7,8,8,9,9,10,10,13,13,14,14,16,16,17,17,18,18,19,19,21,21,22,22,23,23,24,24,26,26,27,27,29,29,32,32],"right_children":[2,4,6,8,10,-1,12,14,16,18,20,-1,-1,22,24,-1,26,28,30,32,-1,34,36,38,40,-1,42,44,-1,46,-1,-1,48,-1,-1,-1,-1,-1,-1,-1,-1,-1,-1,-1,-1,-1,-1,-1,-1],"split_conditions":[1E0,1E0,2E0,6E0,1E0,2.5974745E-1,1E0,3E0,1E0,3E0,1E0,-2.1583666E-1,2.4639352E-1,1E0,1E0,-3.818706E-1,1E0,1E0,1E0,1E0,1.6706343E-1,2E0,1E0,1E0,1E0,-3.5055944E-1,1E0,2E0,-3.1781134E-1,1E0,2.4787624E-1,-3.2055968E-1,3E0,-2.123046E-3,-1.6877407E-1,1.20363586E-1,4.3148693E-1,9.512067E-2,-3.1689414E-1,3.6887035E-1,-1.7465433E-2,3.0499E-1,6.896585E-2,-2.1199201E-1,1.8095067E-1,-1.934819E-1,1.6152965E-1,1.8668091E-1,-2.1349733E-1],"split_indices":[7,0,0,23,18,0,1,24,15,23,6,0,0,2,16,0,29,30,16,11,0,23,27,5,25,0,17,24,0,21,0,0,30,0,0,0,0,0,0,0,0,0,0,0,0,0,0,0,0],"split_type":[0,0,0,0,0,0,0,0,0,0,0,0,0,0,0,0,0,0,0,0,0,0,0,0,0,0,0,0,0,0,0,0,0,0,0,0,0,0,0,0,0,0,0,0,0,0,0,0,0],"sum_hessian":[6.025218E2,5.663404E2,3.6181408E1,5.1807794E2,4.8262463E1,3.1769531E1,4.411875E0,4.8096948E2,3.7108456E1,1.7741238E1,3.0521227E1,1.1981665E0,3.2137084E0,3.6766043E2,1.1330907E2,2.2344347E1,1.476411E1,1.1956989E1,5.784248E0,2.9391714E1,1.1295129E0,3.4810696E2,1.9553476E1,8.9340614E1,2.396845E1,2.5928211E0,1.21712885E1,5.1391606E0,6.8178287E0,3.069168E0,2.7150795E0,2.6155113E1,3.2366018E0,2.8268875E2,6.5418205E1,1.3193118E1,6.3603587E0,8.463168E1,4.7089314E0,2.2158794E1,1.8096569E0,7.4538584E0,4.7174306E0,1.1960744E0,3.943086E0,1.0713558E0,1.9978123E0,1.2363931E0,2.0002089E0],"tree_param":{"num_deleted":"0","num_feature":"33","num_nodes":"49","size_leaf_vector":"1"}},{"base_weights":[1.379108E-4,-4.1634884E-2,9.194231E-1,1.2603058E-1,-2.2683068E-1,2.944226E-1,2.9058335E-2,1.7497204E-1,-4.5993373E-1,-4.708438E-1,2.7019787E-1,1.1612812E-1,1.4136356E0,-6.010483E-1,6.8542737E-1,3.5892513E-1,-8.394829E-1,2.37044E-1,-2.632052E-1,1.5463929E0,1.3617618E-1,-7.255236E-1,2.6028046E-1,1.0534413E0,-2.911913E-1,-3.3132264E-1,4.787049E-1,-3.122176E-1,3.0614961E-2,2.5160847E-2,3.3258346E-1,-1.3947995E-1,3.217997E-1,2.4046217E-1,5.2299774E-1,-3.026416E-1,-8.455907E-2,1.8823136E-1,-3.277607E-1,3.7546334E-1,-3.191175E-2,-3.6380154E-1,3.2256833E-1,2.0842215E-1,-1.0759341E-2],"categories":[],"categories_nodes":[],"categories_segments":[],"categories_sizes":[],"default_left":[0,0,0,0,0,0,0,0,0,0,0,0,0,0,0,0,0,0,0,0,0,0,0,0,0,0,0,0,0,0,0,0,0,0,0,0,0,0,0,0,0,0,0,0,0],"id":10,"left_children":[1,3,5,7,9,-1,-1,11,-1,13,15,17,19,21,23,25,27,29,31,33,-1,35,37,39,-1,41,43,-1,-1,-1,-1,-1,-1,-1,-1,-1,-1,-1,-1,-1,-1,-1,-1,-1,-1],"loss_changes":[2.1996044E1,1.7041502E1,1.1743546E0,2.3670712E1,3.1745161E1,0E0,0E0,2.0305965E1,0E0,2.6791584E1,8.815971E0,1.2409767E1,9.0943146E-1,1.7130634E1,1.2115331E1,6.8370714E0,1.3761177E0,2.722889E1,1.816109E1,1.714325E-1,0E0,1.7101036E1,1.0961445E1,3.664917E0,0E0,1.6843784E1,7.722172E0,0E0,0E0,0E0,0E0,0E0,0E0,0E0,0E0,0E0,0E0,0E0,0E0,0E0,0E0,0E0,0E0,0E0,0E0],"parents":[2147483647,0,0,1,1,2,2,3,3,4,4,7,7,9,9,10,10,11,11,12,12,13,13,14,14,15,15,16,16,17,17,18,18,19,19,21,21,22,22,23,23,25,25,26,26],"right_children":[2,4,6,8,10,-1,-1,12,-1,14,16,18,20,22,24,26,28,30,32,34,-1,36,38,40,-1,42,44,-1,-1,-1,-1,-1,-1,-1,-1,-1,-1,-1,-1,-1,-1,-1,-1,-1,-1],"split_conditions":[1E0,2E0,1E0,1E0,1E0,2.944226E-1,2.9058335E-2,1E0,-4.5993373E-1,1E0,2E0,1E0,2E0,1E0,1E0,1E0,1E0,1E0,1E0,1E0,1.3617618E-1,1E0,1E0,4E0,-2.911913E-1,1E0,6E0,-3.122176E-1,3.0614961E-2,2.5160847E-2,3.3258346E-1,-1.3947995E-1,3.217997E-1,2.4046217E-1,5.2299774E-1,-3.026416E-1,-8.455907E-2,1.8823136E-1,-3.277607E-1,3.7546334E-1,-3.191175E-2,-3.6380154E-1,3.2256833E-1,2.0842215E-1,-1.0759341E-2],"split_indices":[9,30,22,13,28,0,0,11,0,15,0,12,23,2,12,23,1,15,25,18,0,8,8,24,0,13,23,0,0,0,0,0,0,0,0,0,0,0,0,0,0,0,0,0,0],"split_type":[0,0,0,0,0,0,0,0,0,0,0,0,0,0,0,0,0,0,0,0,0,0,0,0,0,0,0,0,0,0,0,0,0,0,0,0,0,0,0,0,0,0,0,0,0],"sum_hessian":[5.708003E2,5.469034E2,2.3896864E1,2.872046E2,2.5969882E2,2.2042688E1,1.8541753E0,2.7984427E2,7.360315E0,1.742195E2,8.547931E1,2.6819708E2,1.164721E1,1.5701828E2,1.7201218E1,7.977709E1,5.7022223E0,2.0365524E2,6.4541824E1,9.694821E0,1.9523885E0,1.373297E2,1.968859E1,1.4371454E1,2.8297625E0,1.1535583E1,6.824151E1,4.6112633E0,1.0909591E0,1.7414601E2,2.9509241E1,5.664057E1,7.9012504E0,3.0874367E0,6.607385E0,8.30363E1,5.4293396E1,1.5907466E1,3.7811234E0,1.2207286E1,2.1641681E0,7.176564E0,4.359019E0,4.7816288E1,2.0425217E1],"tree_param":{"num_deleted":"0","num_feature":"33","num_nodes":"45","size_leaf_vector":"1"}},{"base_weights":[1.296016E-4,-7.42072E-2,3.8153204E-1,-4.2255897E-2,-3.1972125E-1,-1.7337935E-1,5.7112586E-1,-1.1041719E-1,3.0151984E-1,-4.4546926E-1,3.4153494E-1,6.602437E-1,-8.3551735E-1,-3.7521657E-2,-8.023827E-1,5.507941E-1,-1.1036299E-1,-1.4291863E0,4.418948E-1,8.5625714E-1,7.443601E-2,-2.9802206E-1,-5.4537505E-2,-1.5156649E-1,4.707196E-1,-1.034855E0,2.9344004E-1,9.075737E-1,-8.074541E-1,-1.0005221E0,7.234287E-1,-5.1023954E-1,2.9302435E-2,7.0893824E-1,-2.492489E-1,5.879255E-1,1.1161441E0,-6.78886E-1,7.054338E-1,-2.1961467E-2,-3.6025554E-1,-3.7651822E-1,2.0889157E-1,-3.4006903E-1,1.05706155E-1,3.6123037E-1,6.962357E-2,-3.132698E-1,1.6833846E-1,-3.8067445E-1,6.605612E-2,-1.4049387E-1,2.6935723E-1,2.8844655E-1,-5.5825282E-2,2.0523769E-1,-2.1458833E-1,3.586656E-1,-5.8152225E-2,-3.262908E-1,1.7631723E-1,2.685085E-2,2.5278783E-1],"categories":[],"categories_nodes":[],"categories_segments":[],"categories_sizes":[],"default_left":[0,0,0,0,0,0,0,0,0,0,0,0,0,0,0,0,0,0,0,0,0,0,0,0,0,0,0,0,0,0,0,0,0,0,0,0,0,0,0,0,0,0,0,0,0,0,0,0,0,0,0,0,0,0,0,0,0,0,0,0,0,0,0],"id":11,"left_children":[1,3,5,7,-1,9,11,13,15,17,-1,19,21,23,25,27,29,31,33,35,37,-1,-1,39,41,43,-1,45,47,49,51,-1,-1,53,-1,55,57,59,61,-1,-1,-1,-1,-1,-1,-1,-1,-1,-1,-1,-1,-1,-1,-1,-1,-1,-1,-1,-1,-1,-1,-1,-1],"loss_changes":[1.5486663E1,1.4437132E1,9.4726E0,1.0434838E1,0E0,8.879444E0,8.905415E0,1.8692738E1,7.6295505E0,1.8216837E1,0E0,7.196495E0,2.7478027E-1,1.9596235E1,1.5634647E1,2.3068424E1,2.197082E1,4.2262573E0,4.4483533E0,2.6409454E0,8.53474E0,0E0,0E0,2.2595705E1,2.5002697E1,4.7445564E0,0E0,7.126484E0,3.864572E0,4.953042E0,3.6137857E0,0E0,0E0,2.4224577E0,0E0,3.6706648E0,2.6144218E0,4.902449E0,7.4532795E-1,0E0,0E0,0E0,0E0,0E0,0E0,0E0,0E0,0E0,0E0,0E0,0E0,0E0,0E0,0E0,0E0,0E0,0E0,0E0,0E0,0E0,0E0,0E0,0E0],"parents":[2147483647,0,0,1,1,2,2,3,3,5,5,6,6,7,7,8,8,9,9,11,11,12,12,13,13,14,14,15,15,16,16,17,17,18,18,19,19,20,20,23,23,24,24,25,25,27,27,28,28,29,29,30,30,33,33,35,35,36,36,37,37,38,38],"right_children":[2,4,6,8,-1,10,12,14,16,18,-1,20,22,24,26,28,30,32,34,36,38,-1,-1,40,42,44,-1,46,48,50,52,-1,-1,54,-1,56,58,60,62,-1,-1,-1,-1,-1,-1,-1,-1,-1,-1,-1,-1,-1,-1,-1,-1,-1,-1,-1,-1,-1,-1,-1,-1],"split_conditions":[1E0,1E0,1E0,1E0,-3.1972125E-1,1E0,1E0,6E0,1E0,1E0,3.4153494E-1,4E0,1E0,1E0,1E0,1E0,1E0,3E0,1E0,1E0,1E0,-2.9802206E-1,-5.4537505E-2,1E0,1E0,1E0,2.9344004E-1,1E0,1E0,1.3E1,5E0,-5.1023954E-1,2.9302435E-2,1E0,-2.492489E-1,7E0,1E0,1E0,1E0,-2.1961467E-2,-3.6025554E-1,-3.7651822E-1,2.0889157E-1,-3.4006903E-1,1.05706155E-1,3.6123037E-1,6.962357E-2,-3.132698E-1,1.6833846E-1,-3.8067445E-1,6.605612E-2,-1.4049387E-1,2.6935723E-1,2.8844655E-1,-5.5825282E-2,2.0523769E-1,-2.1458833E-1,3.586656E-1,-5.8152225E-2,-3.262908E-1,1.7631723E-1,2.685085E-2,2.5278783E-1],"split_indices":[21,26,23,15,0,28,27,30,28,12,0,23,16,28,20,12,13,18,5,3,15,0,0,14,24,7,0,18,9,30,30,0,0,3,0,30,14,7,29,0,0,0,0,0,0,0,0,0,0,0,0,0,0,0,0,0,0,0,0,0,0,0,0],"split_type":[0,0,0,0,0,0,0,0,0,0,0,0,0,0,0,0,0,0,0,0,0,0,0,0,0,0,0,0,0,0,0,0,0,0,0,0,0,0,0,0,0,0,0,0,0,0,0,0,0,0,0,0,0,0,0,0,0,0,0,0,0,0,0],"sum_hessian":[5.442251E2,4.5612918E2,8.8095894E1,4.428997E2,1.32294855E1,2.2456059E1,6.563984E1,3.7018164E2,7.271805E1,1.914547E1,3.3105905E0,6.222801E1,3.4118278E0,3.35855E2,3.4326626E1,4.5091255E1,2.7626791E1,8.7902E0,1.03552685E1,4.6280655E1,1.5947353E1,2.3295748E0,1.0822531E0,2.7487686E2,6.0978153E1,3.0732801E1,3.593825E0,3.597364E1,9.117617E0,1.3265031E1,1.4361761E1,7.365958E0,1.424242E0,8.925494E0,1.4297743E0,2.4375418E1,2.190524E1,7.2344966E0,8.712856E0,2.5677075E2,1.8106113E1,6.521749E0,5.44564E1,2.8861944E1,1.8708569E0,2.4455616E1,1.1518023E1,7.9748793E0,1.1427374E0,1.0841796E1,2.4232345E0,1.6185522E0,1.2743209E1,6.9033117E0,2.0221825E0,2.3142176E1,1.2332423E0,2.0735651E1,1.1695869E0,5.5762706E0,1.6582261E0,1.888179E0,6.824678E0],"tree_param":{"num_deleted":"0","num_feature":"33","num_nodes":"63","size_leaf_vector":"1"}},{"base_weights":[-2.808261E-3,-3.34113E-2,8.5856813E-1,-5.347988E-2,2.8646427E-1,2.8133705E-1,-2.9603015E-3,8.621898E-2,-2.238366E-1,1.2499523E-1,-3.9393398E-1,-1.4692478E-1,-3.1574062E-1,1.6578239E-1,-1.0299938E0,-2.119425E-1,6.045658E-1,3.5997257E-2,3.2772565E-1,-3.9042997E-1,1.19523115E-1,-1.1020805E-1,7.7420115E-2,3.0666873E-1,-2.7039328E-1],"categories":[],"categories_nodes":[],"categories_segments":[],"categories_sizes":[],"default_left":[0,0,0,0,0,0,0,0,0,0,0,0,0,0,0,0,0,0,0,0,0,0,0,0,0],"id":12,"left_children":[1,3,5,7,-1,-1,-1,9,11,13,-1,15,-1,17,19,21,23,-1,-1,-1,-1,-1,-1,-1,-1],"loss_changes":[1.36096E1,9.937758E0,1.2279158E0,1.1668911E1,0E0,0E0,0E0,1.4797016E1,1.3919275E1,1.2575338E1,0E0,1.0058335E1,0E0,1.069751E1,4.054659E0,1.3812733E1,1.1263243E1,0E0,0E0,0E0,0E0,0E0,0E0,0E0,0E0],"parents":[2147483647,0,0,1,1,2,2,3,3,7,7,8,8,9,9,11,11,13,13,14,14,15,15,16,16],"right_children":[2,4,6,8,-1,-1,-1,10,12,14,-1,16,-1,18,20,22,24,-1,-1,-1,-1,-1,-1,-1,-1],"split_conditions":[1E0,1E0,1E0,2E0,2.8646427E-1,2.8133705E-1,-2.9603015E-3,1E0,1E0,4E0,-3.9393398E-1,1E0,-3.1574062E-1,1E0,1E0,1E0,1E0,3.5997257E-2,3.2772565E-1,-3.9042997E-1,1.19523115E-1,-1.1020805E-1,7.7420115E-2,3.0666873E-1,-2.7039328E-1],"split_indices":[9,31,2,30,0,0,0,13,5,23,0,10,0,11,21,29,26,0,0,0,0,0,0,0,0],"split_type":[0,0,0,0,0,0,0,0,0,0,0,0,0,0,0,0,0,0,0,0,0,0,0,0,0],"sum_hessian":[5.1419476E2,4.974814E2,1.671334E1,4.885075E2,8.973905E0,1.524296E1,1.470381E0,2.6867657E2,2.1983092E2,2.6231827E2,6.358306E0,2.0223703E2,1.7593891E1,2.5419801E2,8.120256E0,1.867939E2,1.5443129E1,2.4330415E2,1.0893856E1,6.898269E0,1.2219872E0,1.4054004E2,4.625386E1,1.2341358E1,3.1017706E0],"tree_param":{"num_deleted":"0","num_feature":"33","num_nodes":"25","size_leaf_vector":"1"}},{"base_weights":[-2.8583766E-3,-3.6025662E-2,6.877579E-1,1.6102066E-3,-6.317688E-1,7.3338896E-1,-3.0377932E-2,-4.178873E-2,5.75298E-1,-3.305593E-1,2.2287395E-2,8.065707E-1,2.475468E-1,1.4368113E-3,-6.982024E-1,2.5593036E-1,1.1192092E0,-2.8747353E-1,3.9968023E-1,5.243014E-1,2.8118488E-1,-4.9635846E-2,1.8508568E-1,-9.255612E-2,2.898101E-1,-2.9625186E-1,2.73823E-1,6.843977E-1,-6.586523E-1,3.828835E-1,9.768523E-2,7.5856006E-1,-3.496926E-1,2.6060718E-1,-2.1103181E-1,4.2755783E-2,-1.596759E-1,8.021328E-3,2.4939139E-1,2.0287673E-1,-2.452157E-1,3.0126274E-1,-3.063751E-1,-3.5926878E-1,2.0323318E-1,6.532776E-2,2.6387528E-1],"categories":[],"categories_nodes":[],"categories_segments":[],"categories_sizes":[],"default_left":[0,0,0,0,0,0,0,0,0,0,0,0,0,0,0,0,0,0,0,0,0,0,0,0,0,0,0,0,0,0,0,0,0,0,0,0,0,0,0,0,0,0,0,0,0,0,0],"id":13,"left_children":[1,3,5,7,9,11,-1,13,15,-1,17,19,21,23,25,27,29,-1,31,33,-1,-1,-1,35,37,-1,39,41,43,-1,-1,45,-1,-1,-1,-1,-1,-1,-1,-1,-1,-1,-1,-1,-1,-1,-1],"loss_changes":[1.1416856E1,1.0662415E1,8.9660454E-1,1.1184206E1,8.712794E0,5.7233906E-1,0E0,1.1851427E1,5.201378E0,0E0,5.1183763E0,1.8849373E-1,7.5585645E-1,1.0674974E1,7.527258E0,8.758889E0,1.0042963E0,0E0,6.471479E0,4.036808E0,0E0,0E0,0E0,3.0778063E1,1.3768783E1,0E0,3.49579E0,9.168516E0,6.048339E0,0E0,0E0,3.7766314E-1,0E0,0E0,0E0,0E0,0E0,0E0,0E0,0E0,0E0,0E0,0E0,0E0,0E0,0E0,0E0],"parents":[2147483647,0,0,1,1,2,2,3,3,4,4,5,5,7,7,8,8,10,10,11,11,12,12,13,13,14,14,15,15,16,16,18,18,19,19,23,23,24,24,26,26,27,27,28,28,31,31],"right_children":[2,4,6,8,10,12,-1,14,16,-1,18,20,22,24,26,28,30,-1,32,34,-1,-1,-1,36,38,-1,40,42,44,-1,-1,46,-1,-1,-1,-1,-1,-1,-1,-1,-1,-1,-1,-1,-1,-1,-1],"split_conditions":[1E0,6E0,7E0,1E0,1E0,1E0,-3.0377932E-2,1E0,2E0,-3.305593E-1,1E0,3E0,1E0,1E0,1E0,1E0,1E0,-2.8747353E-1,2E0,2E0,2.8118488E-1,-4.9635846E-2,1.8508568E-1,1E0,1E0,-2.9625186E-1,2E0,3E0,1E0,3.828835E-1,9.768523E-2,4E0,-3.496926E-1,2.6060718E-1,-2.1103181E-1,4.2755783E-2,-1.596759E-1,8.021328E-3,2.4939139E-1,2.0287673E-1,-2.452157E-1,3.0126274E-1,-3.063751E-1,-3.5926878E-1,2.0323318E-1,6.532776E-2,2.6387528E-1],"split_indices":[7,23,0,2,15,12,0,5,17,0,29,30,4,3,21,12,3,0,17,23,0,0,0,18,8,0,30,30,20,0,0,18,0,0,0,0,0,0,0,0,0,0,0,0,0,0,0],"split_type":[0,0,0,0,0,0,0,0,0,0,0,0,0,0,0,0,0,0,0,0,0,0,0,0,0,0,0,0,0,0,0,0,0,0,0,0,0,0,0,0,0,0,0,0,0,0,0],"sum_hessian":[4.9634323E2,4.7450278E2,2.1840462E1,4.472455E2,2.7257284E1,2.0713072E1,1.1273899E0,4.1665323E2,3.0592262E1,1.5460535E1,1.1796748E1,1.7427797E1,3.285275E0,3.9184747E2,2.4805763E1,2.0201254E1,1.0391008E1,2.8507872E0,8.945961E0,7.1021047E0,1.0325692E1,1.8117865E0,1.4734883E0,2.9603598E2,9.5811485E1,1.9103935E1,5.7018285E0,1.3927927E1,6.273327E0,8.166458E0,2.2245495E0,7.6967354E0,1.2492259E0,5.774709E0,1.3273953E0,1.9334416E2,1.0269183E2,6.518989E1,3.0621593E1,4.443394E0,1.2584344E0,1.2075078E1,1.8528489E0,4.5441456E0,1.7291814E0,1.9193504E0,5.777385E0],"tree_param":{"num_deleted":"0","num_feature":"33","num_nodes":"47","size_leaf_vector":"1"}},{"base_weights":[-3.7617276E-3,-2.8471287E-2,8.2677984E-1,-6.5564364E-3,-8.8732535E-1,2.698015E-1,6.016479E-3,-7.2116815E-2,2.4317573E-1,-2.8722918E-1,-7.468508E-2,-4.1164443E-2,-3.7806034E-1,-3.3495992E-1,3.324724E-1,9.35362E-3,-5.831918E-1,1.6682558E-1,1.0119325E0,1.4909765E-2,-1.9549106E-1,-2.690254E-1,2.5644475E-1,-3.2395893E-1,1.07095E-1,5.041648E-1,-2.2496471E-1],"categories":[],"categories_nodes":[],"categories_segments":[],"categories_sizes":[],"default_left":[0,0,0,0,0,0,0,0,0,0,0,0,0,0,0,0,0,0,0,0,0,0,0,0,0,0,0],"id":14,"left_children":[1,3,5,7,9,-1,-1,11,13,-1,-1,15,-1,-1,17,19,21,23,25,-1,-1,-1,-1,-1,-1,-1,-1],"loss_changes":[9.776021E0,8.698267E0,7.8757477E-1,7.4171295E0,2.7626896E-1,0E0,0E0,1.3140668E1,1.1809383E1,0E0,0E0,9.607591E0,0E0,0E0,9.867342E0,8.613057E0,1.4254175E1,1.7665281E1,2.1616405E1,0E0,0E0,0E0,0E0,0E0,0E0,0E0,0E0],"parents":[2147483647,0,0,1,1,2,2,3,3,4,4,7,7,8,8,11,11,14,14,15,15,16,16,17,17,18,18],"right_children":[2,4,6,8,10,-1,-1,12,14,-1,-1,16,-1,-1,18,20,22,24,26,-1,-1,-1,-1,-1,-1,-1,-1],"split_conditions":[1E0,2E0,1E0,1E0,1E0,2.698015E-1,6.016479E-3,1E0,1E0,-2.8722918E-1,-7.468508E-2,1E0,-3.7806034E-1,-3.3495992E-1,1E0,4E0,1E0,2E0,1E0,1.4909765E-2,-1.9549106E-1,-2.690254E-1,2.5644475E-1,-3.2395893E-1,1.07095E-1,5.041648E-1,-2.2496471E-1],"split_indices":[9,0,2,28,7,0,0,19,24,0,0,25,0,0,27,23,2,24,18,0,0,0,0,0,0,0,0],"split_type":[0,0,0,0,0,0,0,0,0,0,0,0,0,0,0,0,0,0,0,0,0,0,0,0,0,0,0],"sum_hessian":[4.7421344E2,4.6145047E2,1.2762959E1,4.5095148E2,1.0499018E1,1.1604431E1,1.1585273E0,3.577462E2,9.320529E1,9.009785E0,1.4892325E0,3.4967108E2,8.075102E0,5.0349607E0,8.8170334E1,3.2075845E2,2.8912605E1,7.188973E1,1.6280602E1,3.031779E2,1.7580587E1,2.4045784E1,4.866821E0,8.894956E0,6.2994774E1,1.1835211E1,4.445391E0],"tree_param":{"num_deleted":"0","num_feature":"33","num_nodes":"27","size_leaf_vector":"1"}},{"base_weights":[-5.88088E-3,-3.3563476E-2,6.355212E-1,-1.3984233E-2,-2.723706E-1,2.611285E-1,3.7879735E-1,-9.869703E-2,2.3944065E-1,-4.2777476E-1,6.379923E-1,-6.500612E-2,-1.0019193E0,7.538099E-2,8.3449805E-1,-3.059454E-1,1.1807121E-1,2.4423933E-1,-1.4649791E-2,5.3345315E-2,-2.4830051E-1,-1.0913966E0,-2.0178769E-2,1.8279722E-1,-6.003004E-1,1.0150732E0,-6.772383E-2,3.1572517E-2,-3.2956168E-1,-1.0448962E-1,2.4782707E-1,-3.4785578E-1,-7.811014E-2,3.0104337E-2,4.7629312E-1,-3.305931E-1,1.05195805E-1,3.2763273E-1,9.195294E-2,-2.1384458E-1,1.6157973E-1],"categories":[],"categories_nodes":[],"categories_segments":[],"categories_sizes":[],"default_left":[0,0,0,0,0,0,0,0,0,0,0,0,0,0,0,0,0,0,0,0,0,0,0,0,0,0,0,0,0,0,0,0,0,0,0,0,0,0,0,0,0],"id":15,"left_children":[1,3,5,7,-1,-1,9,11,13,15,17,19,21,23,25,-1,-1,-1,-1,27,29,31,-1,33,35,37,39,-1,-1,-1,-1,-1,-1,-1,-1,-1,-1,-1,-1,-1,-1],"loss_changes":[8.234691E0,7.594731E0,8.274851E-1,9.376744E0,0E0,0E0,2.5598378E0,9.89263E0,1.0621094E1,1.9861379E0,1.0898416E0,6.8798513E0,9.0487194E-1,6.4158926E0,3.9059067E0,0E0,0E0,0E0,0E0,1.1662689E1,1.3649619E1,2.9875183E-1,0E0,8.612991E0,6.1835527E0,7.3988724E-1,2.2868886E0,0E0,0E0,0E0,0E0,0E0,0E0,0E0,0E0,0E0,0E0,0E0,0E0,0E0,0E0],"parents":[2147483647,0,0,1,1,2,2,3,3,6,6,7,7,8,8,9,9,10,10,11,11,12,12,13,13,14,14,19,19,20,20,21,21,23,23,24,24,25,25,26,26],"right_children":[2,4,6,8,-1,-1,10,12,14,16,18,20,22,24,26,-1,-1,-1,-1,28,30,32,-1,34,36,38,40,-1,-1,-1,-1,-1,-1,-1,-1,-1,-1,-1,-1,-1,-1],"split_conditions":[1E0,1.6E1,2E0,3E0,-2.723706E-1,2.611285E-1,4E0,3E0,1E0,1E0,2E0,1E0,1.3E1,1E0,6E0,-3.059454E-1,1.1807121E-1,2.4423933E-1,-1.4649791E-2,1E0,1E0,1E0,-2.0178769E-2,1E0,1E0,1E0,1E0,3.1572517E-2,-3.2956168E-1,-1.0448962E-1,2.4782707E-1,-3.4785578E-1,-7.811014E-2,3.0104337E-2,4.7629312E-1,-3.305931E-1,1.05195805E-1,3.2763273E-1,9.195294E-2,-2.1384458E-1,1.6157973E-1],"split_indices":[7,30,23,24,0,0,23,18,16,28,0,23,30,14,23,0,0,0,0,17,11,21,0,22,2,8,15,0,0,0,0,0,0,0,0,0,0,0,0,0,0],"split_type":[0,0,0,0,0,0,0,0,0,0,0,0,0,0,0,0,0,0,0,0,0,0,0,0,0,0,0,0,0,0,0,0,0,0,0,0,0,0,0,0,0],"sum_hessian":[4.6157663E2,4.433879E2,1.8188732E1,4.3467023E2,8.717667E0,8.249638E0,9.939094E0,3.2623096E2,1.0843927E2,2.2590144E0,7.680079E0,3.155333E2,1.0697669E1,8.588666E1,2.255261E1,1.1723306E0,1.0866839E0,5.964983E0,1.7150961E0,1.9216388E2,1.2336942E2,9.609982E0,1.087688E0,7.473512E1,1.1151531E1,1.8687351E1,3.8652596E0,1.8474893E2,7.414951E0,1.13482895E2,9.886526E0,8.516565E0,1.0934163E0,7.160416E1,3.1309671E0,7.1962996E0,3.9552314E0,1.6366648E1,2.3207037E0,1.78766E0,2.0775998E0],"tree_param":{"num_deleted":"0","num_feature":"33","num_nodes":"41","size_leaf_vector":"1"}},{"base_weights":[-3.8373065E-3,-2.4574995E-2,7.958539E-1,-4.843369E-3,-7.212276E-1,2.6028028E-1,2.1126091E-2,-3.14107E-2,5.55736E-1,2.3699884E-1,-3.205287E-1,-1.4025293E-2,-2.7134567E-1,7.9257745E-1,-2.976296E-1,-5.096363E-2,4.5598733E-1,3.0497232E-1,3.7605545E-1,-6.660156E-3,-2.3263395E-1,2.0427994E-1,1.138867E-2,1.789971E-1,-2.7293876E-1],"categories":[],"categories_nodes":[],"categories_segments":[],"categories_sizes":[],"default_left":[0,0,0,0,0,0,0,0,0,0,0,0,0,0,0,0,0,0,0,0,0,0,0,0,0],"id":16,"left_children":[1,3,5,7,9,-1,-1,11,13,-1,-1,15,-1,17,-1,19,21,23,-1,-1,-1,-1,-1,-1,-1],"loss_changes":[7.4969187E0,6.0510817E0,5.336423E-1,6.411556E0,7.2059927E0,0E0,0E0,6.2235556E0,7.9275336E0,0E0,0E0,7.034627E0,0E0,3.539898E0,0E0,7.803865E0,2.7506003E0,4.015839E0,0E0,0E0,0E0,0E0,0E0,0E0,0E0],"parents":[2147483647,0,0,1,1,2,2,3,3,4,4,7,7,8,8,11,11,13,13,15,15,16,16,17,17],"right_children":[2,4,6,8,10,-1,-1,12,14,-1,-1,16,-1,18,-1,20,22,24,-1,-1,-1,-1,-1,-1,-1],"split_conditions":[1E0,1E0,1E0,1E0,1E0,2.6028028E-1,2.1126091E-2,2E0,1E0,2.3699884E-1,-3.205287E-1,1E0,-2.7134567E-1,3E0,-2.976296E-1,1E0,4E0,1E0,3.7605545E-1,-6.660156E-3,-2.3263395E-1,2.0427994E-1,1.138867E-2,1.789971E-1,-2.7293876E-1],"split_indices":[9,26,22,10,8,0,0,0,17,0,0,2,0,30,0,5,23,18,0,0,0,0,0,0,0],"split_type":[0,0,0,0,0,0,0,0,0,0,0,0,0,0,0,0,0,0,0,0,0,0,0,0,0],"sum_hessian":[4.4988486E2,4.3945804E2,1.042681E1,4.283331E2,1.1124933E1,9.31005E0,1.1167595E0,4.0985306E2,1.848005E1,1.8401585E0,9.284775E0,4.028473E2,7.0057726E0,1.645078E1,2.0292675E0,3.7432092E2,2.8526346E1,8.801627E0,7.6491537E0,3.610186E2,1.3302362E1,1.8137402E1,1.0388946E1,7.5077343E0,1.2938927E0],"tree_param":{"num_deleted":"0","num_feature":"33","num_nodes":"25","size_leaf_vector":"1"}},{"base_weights":[-3.6433225E-3,-1.8080266E-2,2.6540518E-1,-3.9243475E-2,5.5101067E-1,-1.901759E-2,-8.441907E-1,2.4690484E-1,2.6267418E-1,-1.459619E-1,8.619718E-2,-9.603556E-1,1.7194955E-2,-3.4528798E-1,6.0052043E-1,7.206431E-2,-1.0117952E0,2.686189E-3,4.0494844E-1,-2.071599E-2,-3.24406E-1,2.3125432E-1,-3.3406075E-2,5.9669558E-2,-1.8352082E-1,-3.569125E-1,8.2765386E-2,-1.4807075E-2,1.2646638E-1,2.2742024E-1,8.327659E-3],"categories":[],"categories_nodes":[],"categories_segments":[],"categories_sizes":[],"default_left":[0,0,0,0,0,0,0,0,0,0,0,0,0,0,0,0,0,0,0,0,0,0,0,0,0,0,0,0,0,0,0],"id":17,"left_children":[1,3,-1,5,7,9,11,-1,13,15,17,19,-1,-1,21,23,25,27,29,-1,-1,-1,-1,-1,-1,-1,-1,-1,-1,-1,-1],"loss_changes":[5.671908E0,5.2599893E0,0E0,6.826463E0,1.0121021E0,5.5021186E0,1.1314464E0,0E0,5.023456E0,3.5305504E1,5.997958E0,9.1336346E-1,0E0,0E0,1.0532432E0,1.3133533E1,8.944534E0,3.935622E0,6.209698E0,0E0,0E0,0E0,0E0,0E0,0E0,0E0,0E0,0E0,0E0,0E0,0E0],"parents":[2147483647,0,0,1,1,3,3,4,4,5,5,6,6,8,8,9,9,10,10,11,11,14,14,15,15,16,16,17,17,18,18],"right_children":[2,4,-1,6,8,10,12,-1,14,16,18,20,-1,-1,22,24,26,28,30,-1,-1,-1,-1,-1,-1,-1,-1,-1,-1,-1,-1],"split_conditions":[1E0,1E0,2.6540518E-1,9E0,2E0,2E0,1E0,2.4690484E-1,3E0,1E0,1E0,2E0,1.7194955E-2,-3.4528798E-1,2E0,1E0,1E0,1E0,2E0,-2.071599E-2,-3.24406E-1,2.3125432E-1,-3.3406075E-2,5.9669558E-2,-1.8352082E-1,-3.569125E-1,8.2765386E-2,-1.4807075E-2,1.2646638E-1,2.2742024E-1,8.327659E-3],"split_indices":[31,7,0,23,23,24,9,0,23,18,21,30,0,0,0,12,13,22,30,0,0,0,0,0,0,0,0,0,0,0,0],"split_type":[0,0,0,0,0,0,0,0,0,0,0,0,0,0,0,0,0,0,0,0,0,0,0,0,0,0,0,0,0,0,0],"sum_hessian":[4.4001608E2,4.3394336E2,6.0727277E0,4.1928223E2,1.4661118E1,4.1000372E2,9.278523E0,6.590004E0,8.071114E0,1.8563866E2,2.2436505E2,8.161575E0,1.1169477E0,1.0926081E0,6.978505E0,1.4902846E2,3.661021E1,1.7858519E2,4.577986E1,1.1632754E0,6.9983006E0,5.564311E0,1.4141941E0,1.26309204E2,2.2719244E1,3.2232826E1,4.3773847E0,1.596334E2,1.8951792E1,2.3122843E1,2.265702E1],"tree_param":{"num_deleted":"0","num_feature":"33","num_nodes":"31","size_leaf_vector":"1"}},{"base_weights":[-5.028542E-3,-2.1385971E-2,7.280085E-1,3.7384168E-3,-4.2259124E-1,2.6229113E-1,1.8684246E-1,1.9551579E-2,-6.894463E-1,-6.648612E-1,-2.1937903E-2,-6.825976E-2,1.5868449E-1,-3.5814896E-2,2.6594475E-1,1.947277E-1,-3.0479854E-1,5.5123167E-3,-9.649806E-1,4.419804E-1,-6.709914E-1,2.6262866E-2,-5.736221E-1,4.0029594E-1,1.4632E-1,-2.113022E-1,1.1558593E-1,-3.176141E-1,-1.1782002E-1,1.84788E-1,-2.528622E-2,-2.4683356E-1,-1.9430375E-2,-1.5644602E-2,1.5021399E-1,-2.635456E-1,1.1730416E-1,1.1184964E-1,-2.6417655E-1],"categories":[],"categories_nodes":[],"categories_segments":[],"categories_sizes":[],"default_left":[0,0,0,0,0,0,0,0,0,0,0,0,0,0,0,0,0,0,0,0,0,0,0,0,0,0,0,0,0,0,0,0,0,0,0,0,0,0,0],"id":18,"left_children":[1,3,5,7,9,-1,11,13,15,17,19,-1,-1,21,23,-1,-1,25,27,29,31,33,35,-1,37,-1,-1,-1,-1,-1,-1,-1,-1,-1,-1,-1,-1,-1,-1],"loss_changes":[5.090536E0,4.184578E0,5.703063E-1,4.3050404E0,2.3600645E0,0E0,5.801996E-1,5.244674E0,4.4883394E0,3.065722E0,3.3837826E0,0E0,0E0,1.0505741E1,8.81872E0,0E0,0E0,1.8075535E0,1.4810944E-1,6.5457034E-1,3.76503E-1,1.0541902E1,9.919005E0,0E0,1.5343275E1,0E0,0E0,0E0,0E0,0E0,0E0,0E0,0E0,0E0,0E0,0E0,0E0,0E0,0E0],"parents":[2147483647,0,0,1,1,2,2,3,3,4,4,6,6,7,7,8,8,9,9,10,10,13,13,14,14,17,17,18,18,19,19,20,20,21,21,22,22,24,24],"right_children":[2,4,6,8,10,-1,12,14,16,18,20,-1,-1,22,24,-1,-1,26,28,30,32,34,36,-1,38,-1,-1,-1,-1,-1,-1,-1,-1,-1,-1,-1,-1,-1,-1],"split_conditions":[1E0,1E0,1E0,1E0,3E0,2.6229113E-1,1E0,1E0,1E0,1E0,2E0,-6.825976E-2,1.5868449E-1,1E0,1E0,1.947277E-1,-3.0479854E-1,1E0,3E0,4E0,2.9E1,1E0,1E0,4.0029594E-1,3E0,-2.113022E-1,1.1558593E-1,-3.176141E-1,-1.1782002E-1,1.84788E-1,-2.528622E-2,-2.4683356E-1,-1.9430375E-2,-1.5644602E-2,1.5021399E-1,-2.635456E-1,1.1730416E-1,1.1184964E-1,-2.6417655E-1],"split_indices":[9,0,0,26,23,0,6,8,8,30,18,0,0,12,32,0,0,3,0,30,23,15,29,0,23,0,0,0,0,0,0,0,0,0,0,0,0,0,0],"split_type":[0,0,0,0,0,0,0,0,0,0,0,0,0,0,0,0,0,0,0,0,0,0,0,0,0,0,0,0,0,0,0,0,0,0,0,0,0,0,0],"sum_hessian":[4.2224542E2,4.139785E2,8.266939E0,3.9051428E2,2.3464212E1,6.023102E0,2.243837E0,3.8275455E2,7.7597313E0,1.4211348E1,9.252865E0,1.1661935E0,1.0776435E0,3.1322507E2,6.952948E1,1.3280915E0,6.4316397E0,4.6983423E0,9.513005E0,5.582062E0,3.6708028E0,2.816644E2,3.1560661E1,5.9787493E0,6.355073E1,1.3396714E0,3.3586707E0,7.4436502E0,2.069355E0,4.067087E0,1.5149746E0,2.6500578E0,1.0207448E0,2.4248024E2,3.918417E1,2.4049406E1,7.5112553E0,5.2587982E1,1.0962749E1],"tree_param":{"num_deleted":"0","num_feature":"33","num_nodes":"39","size_leaf_vector":"1"}},{"base_weights":[-5.2877488E-3,-1.8221626E-2,2.5573745E-1,7.287274E-2,-1.4421284E-1,1.0196658E-1,-3.144219E-1,-5.249671E-1,-5.965495E-2,6.872572E-2,8.6620843E-1,-1.0041326E0,8.3267236E-1,3.2936272E-3,-5.3717E-1,2.0686029E-1,-2.1355005E-1,7.657205E-2,3.0769074E-1,-3.5229123E-1,1.9653843E-1,-1.24976106E-1,3.842506E-1,-5.067612E-2,1.0113431E0,-9.4138765E-1,3.2195958E-1,9.824929E-2,-1.20003335E-1,-1.2321323E-1,2.0666175E-1,2.0832103E-2,-1.6675216E-1,1.5133592E-1,3.5902935E-1,-3.674849E-1,6.335181E-2,1.9422674E-1,-1.8509634E-1],"categories":[],"categories_nodes":[],"categories_segments":[],"categories_sizes":[],"default_left":[0,0,0,0,0,0,0,0,0,0,0,0,0,0,0,0,0,0,0,0,0,0,0,0,0,0,0,0,0,0,0,0,0,0,0,0,0,0,0],"id":19,"left_children":[1,3,-1,5,7,9,-1,11,13,15,17,19,21,23,25,27,29,-1,-1,-1,-1,-1,-1,31,33,35,37,-1,-1,-1,-1,-1,-1,-1,-1,-1,-1,-1,-1],"loss_changes":[4.586903E0,4.6807275E0,0E0,7.830476E0,5.476986E0,5.8278303E0,0E0,2.0978184E1,4.2438416E0,8.746232E0,6.707368E-1,7.359167E0,5.361799E0,6.888888E0,6.0133963E0,1.1138643E1,1.3417309E1,0E0,0E0,0E0,0E0,0E0,0E0,7.3350463E0,1.0690689E-3,3.9965086E0,2.2349234E0,0E0,0E0,0E0,0E0,0E0,0E0,0E0,0E0,0E0,0E0,0E0,0E0],"parents":[2147483647,0,0,1,1,3,3,4,4,5,5,7,7,8,8,9,9,10,10,11,11,12,12,13,13,14,14,15,15,16,16,23,23,24,24,25,25,26,26],"right_children":[2,4,-1,6,8,10,-1,12,14,16,18,20,22,24,26,28,30,-1,-1,-1,-1,-1,-1,32,34,36,38,-1,-1,-1,-1,-1,-1,-1,-1,-1,-1,-1,-1],"split_conditions":[1E0,2E0,2.5573745E-1,1E0,2E0,1E0,-3.144219E-1,3E0,1E0,1E0,1E0,1E0,1E0,1E0,1E0,1E0,1E0,7.657205E-2,3.0769074E-1,-3.5229123E-1,1.9653843E-1,-1.24976106E-1,3.842506E-1,4E0,1E0,1E0,1E0,9.824929E-2,-1.20003335E-1,-1.2321323E-1,2.0666175E-1,2.0832103E-2,-1.6675216E-1,1.5133592E-1,3.5902935E-1,-3.674849E-1,6.335181E-2,1.9422674E-1,-1.8509634E-1],"split_indices":[31,30,0,13,24,11,0,23,14,23,18,7,27,22,2,12,21,0,0,0,0,0,0,23,28,0,12,0,0,0,0,0,0,0,0,0,0,0,0],"split_type":[0,0,0,0,0,0,0,0,0,0,0,0,0,0,0,0,0,0,0,0,0,0,0,0,0,0,0,0,0,0,0,0,0,0,0,0,0,0,0],"sum_hessian":[4.110586E2,4.0591656E2,5.142025E0,2.3582884E2,1.7008774E2,2.3074884E2,5.0799885E0,2.9962362E1,1.4012538E2,2.2217522E2,8.573632E0,2.2338568E1,7.623795E0,1.24682205E2,1.54431715E1,1.4935431E2,7.282091E1,2.3124983E0,6.2611337E0,2.052575E1,1.8128182E0,2.0314791E0,5.5923157E0,1.1924757E2,5.4346414E0,1.0436898E1,5.0062723E0,1.24972015E2,2.4382294E1,6.0210938E1,1.2609968E1,9.703695E1,2.2210615E1,2.4520373E0,2.9826043E0,8.32573E0,2.1111686E0,3.9482055E0,1.058067E0],"tree_param":{"num_deleted":"0","num_feature":"33","num_nodes":"39","size_leaf_vector":"1"}},{"base_weights":[-3.8192337E-3,-5.0345827E-2,2.7360064E-1,-2.1934528E-2,-3.5665932E-1,4.7969955E-1,-1.983494E-1,-5.324713E-2,6.8592536E-1,7.715944E-1,-5.994193E-2,-8.845346E-1,5.507112E-1,-1.2516169E-1,1.721819E-1,1.2271434E0,-5.5858284E-1,5.139221E-1,3.4130302E-1,-6.539734E-1,3.5450777E-1,-1.2219993E0,9.0656064E-2,2.6709652E-1,1.7471865E-1,-2.2499964E-2,-3.8087004E-1,-1.03143774E-1,6.0413414E-1,2.0145041E-1,5.060726E-1,-2.560078E-1,5.6917362E-2,6.7952746E-1,-2.9099342E-1,-3.4133756E-1,1.718475E-1,-1.5710764E-1,6.5724546E-1,-4.671637E-1,-4.4691052E-2,-1.281625E-1,5.014887E-1,-3.4670666E-2,2.1163759E-1,-1.497773E-1,1.6443849E-1,-8.166244E-2,1.552084E-1,-1.0340123E-1,2.8075293E-1,-2.1302018E-1,2.5021937E-1,2.4580663E-1,-2.0745547E-1,2.205518E-1,-4.1372547E-1,2.5556898E-1,-2.3368249E-2,1.7775413E-1,3.3993676E-2],"categories":[],"categories_nodes":[],"categories_segments":[],"categories_sizes":[],"default_left":[0,0,0,0,0,0,0,0,0,0,0,0,0,0,0,0,0,0,0,0,0,0,0,0,0,0,0,0,0,0,0,0,0,0,0,0,0,0,0,0,0,0,0,0,0,0,0,0,0,0,0,0,0,0,0,0,0,0,0,0,0],"id":20,"left_children":[1,3,5,7,-1,9,11,13,15,17,19,21,23,25,27,29,31,33,-1,35,37,39,-1,-1,41,43,45,47,49,51,-1,-1,-1,53,-1,-1,-1,55,57,-1,-1,-1,59,-1,-1,-1,-1,-1,-1,-1,-1,-1,-1,-1,-1,-1,-1,-1,-1,-1,-1],"loss_changes":[5.152069E0,1.10287075E1,5.67161E0,7.449725E0,0E0,6.3780317E0,9.807706E0,5.2289877E0,1.0276936E1,1.8828564E0,3.9342136E0,4.3130546E0,1.0301712E0,6.3995943E0,9.351651E0,4.4877424E0,1.2655057E0,4.8801136E0,0E0,4.5286527E0,1.5756869E0,2.5972376E0,0E0,0E0,1.3257563E0,1.1954144E1,7.9576635E0,5.2347593E0,9.938037E0,3.0741513E0,0E0,0E0,0E0,3.6416507E0,0E0,0E0,0E0,5.7472425E0,9.4860125E-1,0E0,0E0,0E0,7.8531146E-2,0E0,0E0,0E0,0E0,0E0,0E0,0E0,0E0,0E0,0E0,0E0,0E0,0E0,0E0,0E0,0E0,0E0,0E0],"parents":[2147483647,0,0,1,1,2,2,3,3,5,5,6,6,7,7,8,8,9,9,10,10,11,11,12,12,13,13,14,14,15,15,16,16,17,17,19,19,20,20,21,21,24,24,25,25,26,26,27,27,28,28,29,29,33,33,37,37,38,38,42,42],"right_children":[2,4,6,8,-1,10,12,14,16,18,20,22,24,26,28,30,32,34,-1,36,38,40,-1,-1,42,44,46,48,50,52,-1,-1,-1,54,-1,-1,-1,56,58,-1,-1,-1,60,-1,-1,-1,-1,-1,-1,-1,-1,-1,-1,-1,-1,-1,-1,-1,-1,-1,-1],"split_conditions":[1E0,1E0,1E0,1E0,-3.5665932E-1,3E0,5E0,1E0,2E0,1E0,1E0,3E0,6E0,2E0,1E0,1E0,1E0,1E0,3.4130302E-1,1E0,4E0,1E0,9.0656064E-2,2.6709652E-1,4E0,3E0,1E0,1E0,1E0,1E0,5.060726E-1,-2.560078E-1,5.6917362E-2,1E0,-2.9099342E-1,-3.4133756E-1,1.718475E-1,2E0,2E0,-4.671637E-1,-4.4691052E-2,-1.281625E-1,6E1,-3.4670666E-2,2.1163759E-1,-1.497773E-1,1.6443849E-1,-8.166244E-2,1.552084E-1,-1.0340123E-1,2.8075293E-1,-2.1302018E-1,2.5021937E-1,2.4580663E-1,-2.0745547E-1,2.205518E-1,-4.1372547E-1,2.5556898E-1,-2.3368249E-2,1.7775413E-1,3.3993676E-2],"split_indices":[29,19,16,27,0,23,23,3,24,28,15,24,23,30,8,28,15,17,0,11,30,25,0,0,24,24,16,15,18,2,0,0,0,18,0,0,0,30,17,0,0,0,30,0,0,0,0,0,0,0,0,0,0,0,0,0,0,0,0,0,0],"split_type":[0,0,0,0,0,0,0,0,0,0,0,0,0,0,0,0,0,0,0,0,0,0,0,0,0,0,0,0,0,0,0,0,0,0,0,0,0,0,0,0,0,0,0,0,0,0,0,0,0,0,0,0,0,0,0,0,0,0,0,0,0],"sum_hessian":[3.9708896E2,3.407583E2,5.6330677E1,3.3345627E2,7.3020096E0,3.9197044E1,1.713363E1,3.202161E2,1.3240173E1,2.5158731E1,1.4038314E1,8.847721E0,8.28591E0,2.4310689E2,7.710923E1,9.237064E0,4.0031085E0,1.6176506E1,8.982224E0,5.531736E0,8.5065775E0,6.865633E0,1.9820881E0,3.634853E0,4.6510572E0,1.7424074E2,6.886614E1,4.7557415E1,2.955181E1,3.3040955E0,5.932969E0,2.7711139E0,1.2319949E0,1.5040079E1,1.1364279E0,4.0192113E0,1.5125242E0,3.3411696E0,5.1654086E0,4.887541E0,1.9780926E0,1.5283648E0,3.1226923E0,1.5523528E2,1.9005463E1,6.14924E1,7.373743E0,3.781544E1,9.741976E0,7.6450853E0,2.1906725E1,1.3034927E0,2.000603E0,1.40133E1,1.026779E0,2.161344E0,1.1798255E0,3.95846E0,1.2069483E0,2.10312E0,1.0195721E0],"tree_param":{"num_deleted":"0","num_feature":"33","num_nodes":"61","size_leaf_vector":"1"}},{"base_weights":[-1.7613069E-3,-1.6041465E-2,6.7853403E-1,-4.041764E-3,-6.659501E-1,2.3766549E-1,-1.4548467E-2,-2.5234552E-2,4.458267E-1,-2.8374955E-1,-5.5738702E-2,-7.789201E-2,1.799622E-1,6.0869E-1,-2.3514682E-1,-1.6941716E-1,1.5764293E-1,3.2548968E-2,-3.1776977E-1,-2.9857224E-1,2.5094935E-1,7.190292E-1,-1.1055031E-1,2.7203051E-2,-2.4823122E-1,-1.7322384E-1,-4.718802E-3,1.347828E-1,-9.515805E-2,4.1036077E-2,2.8405765E-1],"categories":[],"categories_nodes":[],"categories_segments":[],"categories_sizes":[],"default_left":[0,0,0,0,0,0,0,0,0,0,0,0,0,0,0,0,0,0,0,0,0,0,0,0,0,0,0,0,0,0,0],"id":21,"left_children":[1,3,5,7,9,-1,-1,11,13,-1,15,17,19,21,-1,-1,-1,23,25,-1,27,29,-1,-1,-1,-1,-1,-1,-1,-1,-1],"loss_changes":[3.7492952E0,2.944317E0,6.942427E-1,3.5582645E0,1.1162381E0,0E0,0E0,3.8633296E0,3.8398364E0,0E0,1.2477896E0,7.5393386E0,6.3441505E0,1.9243989E0,0E0,0E0,0E0,9.848281E0,7.0244827E0,0E0,7.995058E0,1.7498693E0,0E0,0E0,0E0,0E0,0E0,0E0,0E0,0E0,0E0],"parents":[2147483647,0,0,1,1,2,2,3,3,4,4,7,7,8,8,10,10,11,11,12,12,13,13,17,17,18,18,20,20,21,21],"right_children":[2,4,6,8,10,-1,-1,12,14,-1,16,18,20,22,-1,-1,-1,24,26,-1,28,30,-1,-1,-1,-1,-1,-1,-1,-1,-1],"split_conditions":[1E0,1E0,1E0,1E0,1E0,2.3766549E-1,-1.4548467E-2,1E0,1E0,-2.8374955E-1,1E0,2E0,1E0,3E0,-2.3514682E-1,-1.6941716E-1,1.5764293E-1,3E0,3E0,-2.9857224E-1,1E0,2E0,-1.1055031E-1,2.7203051E-2,-2.4823122E-1,-1.7322384E-1,-4.718802E-3,1.347828E-1,-9.515805E-2,4.1036077E-2,2.8405765E-1],"split_indices":[9,26,22,10,5,0,0,28,17,0,21,30,24,24,0,0,0,23,24,0,15,24,0,0,0,0,0,0,0,0,0],"split_type":[0,0,0,0,0,0,0,0,0,0,0,0,0,0,0,0,0,0,0,0,0,0,0,0,0,0,0,0,0,0,0],"sum_hessian":[3.83819E2,3.768842E2,6.934799E0,3.7103964E2,5.8445354E0,5.919511E0,1.0152884E0,3.5524823E2,1.579143E1,3.6297126E0,2.214823E0,2.8319525E2,7.205298E1,1.4390449E1,1.4009818E0,1.1959085E0,1.0189145E0,1.9450734E2,8.86879E1,3.3627152E0,6.869026E1,1.3167799E1,1.2226493E0,1.8303058E2,1.1476773E1,4.720089E1,4.148701E1,5.1071503E1,1.7618761E1,4.153497E0,9.014301E0],"tree_param":{"num_deleted":"0","num_feature":"33","num_nodes":"31","size_leaf_vector":"1"}},{"base_weights":[-3.986601E-3,-2.3752477E-2,5.276181E-1,-8.2711043E-4,-4.508705E-1,-1.6381275E-2,6.301803E-1,-2.9431555E-2,4.0351284E-1,-8.106346E-1,-2.4090162E-2,7.084136E-1,-1.4121306E-2,1.2412609E-2,-3.7886477E-1,1.01198986E-1,7.982955E-1,-2.8787073E-1,-2.7587382E-2,3.3337924E-1,-1.9755755E-1,2.3825485E-1,5.974228E-2,4.4251543E-2,-5.784548E-1,-9.173567E-1,1.7960481E-1,-2.9264706E-1,2.6219395E-1,2.974998E-1,5.855617E-3,3.270997E-2,1.7761841E-1,2.0723714E-2,-1.6258186E-1,-2.6843032E-1,2.1628004E-1,-4.0106794E-1,3.7455518E-2,1.3409874E-1,-2.3412357E-1,-2.8887987E-1,1.8516499E-1],"categories":[],"categories_nodes":[],"categories_segments":[],"categories_sizes":[],"default_left":[0,0,0,0,0,0,0,0,0,0,0,0,0,0,0,0,0,0,0,0,0,0,0,0,0,0,0,0,0,0,0,0,0,0,0,0,0,0,0,0,0,0,0],"id":22,"left_children":[1,3,5,7,9,-1,11,13,15,17,19,21,-1,23,25,27,29,-1,-1,31,-1,-1,-1,33,35,37,39,41,-1,-1,-1,-1,-1,-1,-1,-1,-1,-1,-1,-1,-1,-1,-1],"loss_changes":[3.972304E0,3.5667415E0,8.436866E-1,4.022234E0,2.8294814E0,0E0,6.480861E-1,4.753293E0,2.6614647E0,9.861412E-1,2.3781054E0,2.98882E-1,0E0,5.5000553E0,1.0618969E1,4.5647097E0,1.459363E0,0E0,0E0,3.2727283E-1,0E0,0E0,0E0,4.0695252E0,6.7896585E0,7.9767866E0,4.9440312E0,6.7705965E0,0E0,0E0,0E0,0E0,0E0,0E0,0E0,0E0,0E0,0E0,0E0,0E0,0E0,0E0,0E0],"parents":[2147483647,0,0,1,1,2,2,3,3,4,4,6,6,7,7,8,8,9,9,10,10,11,11,13,13,14,14,15,15,16,16,19,19,23,23,24,24,25,25,26,26,27,27],"right_children":[2,4,6,8,10,-1,12,14,16,18,20,22,-1,24,26,28,30,-1,-1,32,-1,-1,-1,34,36,38,40,42,-1,-1,-1,-1,-1,-1,-1,-1,-1,-1,-1,-1,-1,-1,-1],"split_conditions":[1E0,1E0,1E0,1E0,1E0,-1.6381275E-2,4E0,1E0,2E0,1E0,3E0,1E0,-1.4121306E-2,4E0,3E0,1E0,1E0,-2.8787073E-1,-2.7587382E-2,3E0,-1.9755755E-1,2.3825485E-1,5.974228E-2,1E0,1E0,1E0,6E0,1E0,2.6219395E-1,2.974998E-1,5.855617E-3,3.270997E-2,1.7761841E-1,2.0723714E-2,-1.6258186E-1,-2.6843032E-1,2.1628004E-1,-4.0106794E-1,3.7455518E-2,1.3409874E-1,-2.3412357E-1,-2.8887987E-1,1.8516499E-1],"split_indices":[7,0,18,2,3,0,0,17,17,16,30,12,0,23,23,13,3,0,0,23,0,0,0,5,20,25,23,22,0,0,0,0,0,0,0,0,0,0,0,0,0,0,0],"split_type":[0,0,0,0,0,0,0,0,0,0,0,0,0,0,0,0,0,0,0,0,0,0,0,0,0,0,0,0,0,0,0,0,0,0,0,0,0,0,0,0,0,0,0],"sum_hessian":[3.758472E2,3.6329468E2,1.2552532E1,3.457392E2,1.7555458E1,1.9500631E0,1.0602469E1,3.2376233E2,2.1976887E1,9.037596E0,8.517862E0,9.463295E0,1.1391742E0,2.8999973E2,3.3762604E1,1.315754E1,8.819346E0,7.208548E0,1.8290471E0,5.751649E0,2.7662134E0,7.6204505E0,1.8428441E0,2.7604987E2,1.394986E1,1.6861576E1,1.6901028E1,9.127193E0,4.0303473E0,6.8460956E0,1.9732507E0,3.8415236E0,1.9101253E0,2.6567944E2,1.0370415E1,1.1469265E1,2.480595E0,1.1820526E1,5.0410495E0,1.3637108E1,3.2639205E0,5.2219315E0,3.9052618E0],"tree_param":{"num_deleted":"0","num_feature":"33","num_nodes":"43","size_leaf_vector":"1"}},{"base_weights":[-4.750379E-3,-4.1409332E-2,2.3378733E-1,-1.9555395E-2,-3.3138204E-1,4.0573114E-1,-1.7742519E-1,-8.121681E-2,2.3840939E-1,5.380375E-1,-2.2445981E-1,-7.486808E-1,4.673153E-1,-3.205826E-2,-5.866652E-1,3.25293E-1,-2.6728585E-1,3.6656052E-1,2.9393193E-1,2.1898143E-1,-6.852722E-1,-1.056967E0,6.748668E-2,2.2644436E-1,1.6110095E-1,-9.349295E-2,3.8018417E-1,-8.603307E-1,3.5832846E-1,4.824469E-1,-1.3847728E-1,1.1752916E-1,9.5229506E-1,-2.8661096E-1,3.854115E-2,-1.7660588E-2,-3.907339E-1,-9.8580584E-2,4.2182785E-1,-1.4641669E-2,-2.3159222E-1,1.9963142E-1,-2.1409954E-1,-2.843945E-1,3.4655433E-2,1.9248419E-1,-1.3145338E-1,2.4452643E-1,3.900121E-2,-1.8490852E-1,2.5742108E-1,1.4543946E-1,-3.2305753E-1,3.2779443E-1,5.6294482E-2,1.6179244E-1,1.8692035E-2],"categories":[],"categories_nodes":[],"categories_segments":[],"categories_sizes":[],"default_left":[0,0,0,0,0,0,0,0,0,0,0,0,0,0,0,0,0,0,0,0,0,0,0,0,0,0,0,0,0,0,0,0,0,0,0,0,0,0,0,0,0,0,0,0,0,0,0,0,0,0,0,0,0,0,0,0,0],"id":23,"left_children":[1,3,5,7,-1,9,11,13,15,17,19,21,23,25,27,29,-1,31,-1,-1,33,35,-1,-1,37,39,41,43,45,47,49,51,53,-1,-1,-1,-1,-1,55,-1,-1,-1,-1,-1,-1,-1,-1,-1,-1,-1,-1,-1,-1,-1,-1,-1,-1],"loss_changes":[3.2060373E0,7.3597956E0,3.5253959E0,4.987006E0,0E0,3.0177703E0,5.910226E0,6.2625537E0,6.2265406E0,1.8383474E0,3.4620423E0,2.7557778E0,5.5698013E-1,5.897266E0,6.08816E0,4.2148356E0,0E0,3.1694932E0,0E0,0E0,1.2343147E0,1.5274153E0,0E0,0E0,7.7749765E-1,6.093994E0,9.903026E0,1.6170244E0,1.5728893E0,4.9037733E0,7.7588596E0,7.9467206E0,5.0009775E-1,0E0,0E0,0E0,0E0,0E0,1.22808635E-1,0E0,0E0,0E0,0E0,0E0,0E0,0E0,0E0,0E0,0E0,0E0,0E0,0E0,0E0,0E0,0E0,0E0,0E0],"parents":[2147483647,0,0,1,1,2,2,3,3,5,5,6,6,7,7,8,8,9,9,10,10,11,11,12,12,13,13,14,14,15,15,17,17,20,20,21,21,24,24,25,25,26,26,27,27,28,28,29,29,30,30,31,31,32,32,38,38],"right_children":[2,4,6,8,-1,10,12,14,16,18,20,22,24,26,28,30,-1,32,-1,-1,34,36,-1,-1,38,40,42,44,46,48,50,52,54,-1,-1,-1,-1,-1,56,-1,-1,-1,-1,-1,-1,-1,-1,-1,-1,-1,-1,-1,-1,-1,-1,-1,-1],"split_conditions":[1E0,1E0,1E0,1E0,-3.3138204E-1,1E0,5E0,1E0,1E0,4E0,2E0,3E0,6E0,1E0,1E0,1E0,-2.6728585E-1,5E0,2.9393193E-1,2.1898143E-1,1E0,2E0,6.748668E-2,2.2644436E-1,4E0,1E0,1E0,1E0,2E0,1E0,2E0,1E0,1E0,-2.8661096E-1,3.854115E-2,-1.7660588E-2,-3.907339E-1,-9.8580584E-2,1E0,-1.4641669E-2,-2.3159222E-1,1.9963142E-1,-2.1409954E-1,-2.843945E-1,3.4655433E-2,1.9248419E-1,-1.3145338E-1,2.4452643E-1,3.900121E-2,-1.8490852E-1,2.5742108E-1,1.4543946E-1,-3.2305753E-1,3.2779443E-1,5.6294482E-2,1.6179244E-1,1.8692035E-2],"split_indices":[29,19,16,8,0,17,23,12,26,24,23,24,23,15,21,5,0,30,0,0,32,30,0,0,24,25,28,2,30,23,17,18,12,0,0,0,0,0,0,0,0,0,0,0,0,0,0,0,0,0,0,0,0,0,0,0,0],"split_type":[0,0,0,0,0,0,0,0,0,0,0,0,0,0,0,0,0,0,0,0,0,0,0,0,0,0,0,0,0,0,0,0,0,0,0,0,0,0,0,0,0,0,0,0,0,0,0,0,0,0,0,0,0,0,0,0,0],"sum_hessian":[3.6452588E2,3.166837E2,4.7842182E1,3.1130328E2,5.38042E0,3.37453E1,1.4096882E1,2.5180048E2,5.9502796E1,2.8010769E1,5.7345314E0,7.3889136E0,6.7079678E0,2.3045087E2,2.1349604E1,5.5913265E1,3.5895283E0,2.1496054E1,6.514716E0,1.6770775E0,4.0574536E0,5.546968E0,1.8419455E0,2.704125E0,4.003843E0,2.0123492E2,2.9215952E1,1.662475E1,4.724854E0,4.173172E1,1.4181547E1,1.5925715E1,5.5703373E0,2.9156475E0,1.1418064E0,1.3396935E0,4.2072744E0,1.300634E0,2.703209E0,1.8980553E2,1.1429392E1,2.3483564E1,5.7323866E0,1.5280784E1,1.3439659E0,3.6287262E0,1.0961277E0,2.0793655E1,2.0938063E1,9.8429575E0,4.3385897E0,1.2634703E1,3.2910132E0,4.3440228E0,1.2263144E0,1.6605269E0,1.042682E0],"tree_param":{"num_deleted":"0","num_feature":"33","num_nodes":"57","size_leaf_vector":"1"}},{"base_weights":[-5.1180082E-3,-2.4482207E-2,5.133708E-1,-3.3788066E-2,2.2552508E-1,-3.9373443E-2,6.2690693E-1,-6.377895E-3,-3.4047455E-1,2.5526482E-1,2.816866E-1,1.665257E-2,-6.274792E-1,-5.3268576E-1,2.795861E-1,-6.1207157E-2,1.877935E-1,-1.0639605E-1,1.3673118E-1,-3.241583E-1,2.1887992E-1,-8.3313155E-1,4.7881928E-1,8.2387346E-1,-1.9337428E-1,1.0386258E-1,-1.4358848E-1,1.2001633E-2,-2.8848445E-1,5.99173E-2,-7.516778E-2,-1.7646709E-1,2.1866198E-1,-2.997338E-1,1.5539369E-1,-8.436537E-2,2.1425907E-1,9.2182584E-2,2.880843E-1],"categories":[],"categories_nodes":[],"categories_segments":[],"categories_sizes":[],"default_left":[0,0,0,0,0,0,0,0,0,0,0,0,0,0,0,0,0,0,0,0,0,0,0,0,0,0,0,0,0,0,0,0,0,0,0,0,0,0,0],"id":24,"left_children":[1,3,5,7,-1,-1,9,11,13,-1,15,17,19,21,23,25,-1,27,29,-1,31,33,35,37,-1,-1,-1,-1,-1,-1,-1,-1,-1,-1,-1,-1,-1,-1,-1],"loss_changes":[3.5564542E0,2.4901981E0,1.0156708E0,2.8402913E0,0E0,0E0,6.1214256E-1,4.464956E0,3.452946E0,0E0,7.265674E-1,4.4656873E0,4.51577E0,6.9347835E0,4.160709E0,8.1735915E-1,0E0,1.8737629E1,3.78037E0,0E0,2.3726544E0,4.317877E0,1.1955334E0,5.5874586E-2,0E0,0E0,0E0,0E0,0E0,0E0,0E0,0E0,0E0,0E0,0E0,0E0,0E0,0E0,0E0],"parents":[2147483647,0,0,1,1,2,2,3,3,6,6,7,7,8,8,10,10,11,11,12,12,13,13,14,14,15,15,17,17,18,18,20,20,21,21,22,22,23,23],"right_children":[2,4,6,8,-1,-1,10,12,14,-1,16,18,20,22,24,26,-1,28,30,-1,32,34,36,38,-1,-1,-1,-1,-1,-1,-1,-1,-1,-1,-1,-1,-1,-1,-1],"split_conditions":[1E0,1E0,1E0,4E0,2.2552508E-1,-3.9373443E-2,3E0,3E0,5E0,2.5526482E-1,2E0,2E0,1E0,1E0,6E0,5E0,1.877935E-1,1E0,4E0,-3.241583E-1,3E0,1E0,1E0,1E0,-1.9337428E-1,1.0386258E-1,-1.4358848E-1,1.2001633E-2,-2.8848445E-1,5.99173E-2,-7.516778E-2,-1.7646709E-1,2.1866198E-1,-2.997338E-1,1.5539369E-1,-8.436537E-2,2.1425907E-1,9.2182584E-2,2.880843E-1],"split_indices":[7,31,18,23,0,0,24,18,18,0,17,24,13,27,18,18,0,18,30,0,23,20,17,22,0,0,0,0,0,0,0,0,0,0,0,0,0,0,0],"split_type":[0,0,0,0,0,0,0,0,0,0,0,0,0,0,0,0,0,0,0,0,0,0,0,0,0,0,0,0,0,0,0,0,0,0,0,0,0,0,0],"sum_hessian":[3.5197244E2,3.4021893E2,1.1753505E1,3.371337E2,3.0852537E0,1.7367743E0,1.001673E1,3.104114E2,2.672229E1,5.1868176E0,4.8299127E0,3.0025125E2,1.0160141E1,2.0506454E1,6.215836E0,2.831817E0,1.9980956E0,1.4834799E2,1.5190327E2,6.4375176E0,3.7226236E0,1.5946295E1,4.5601587E0,3.980215E0,2.2356212E0,1.5194188E0,1.3123981E0,1.27478645E2,2.0869339E1,1.3106906E2,2.0834202E1,1.3820417E0,2.340582E0,1.4433673E1,1.5126218E0,1.0322521E0,3.5279067E0,1.510881E0,2.4693341E0],"tree_param":{"num_deleted":"0","num_feature":"33","num_nodes":"39","size_leaf_vector":"1"}},{"base_weights":[-5.0374046E-3,-1.933738E-2,6.9260013E-1,4.2412975E-3,-3.007734E-1,2.3765478E-1,4.6232127E-2,-2.6634915E-2,2.4691333E-1,-4.157822E-1,-4.276011E-2,-1.1101572E-2,-2.9567316E-1,4.5537433E-1,-3.0677974E-1,2.7656177E-1,-7.129563E-1,-3.4652576E-2,5.392216E-1,-9.138968E-2,5.6115824E-1,-8.479621E-1,4.7860003E-1,4.062502E-1,-1.6551784E-1,-1.024712E0,5.4244876E-2,-2.9600475E-2,5.0856862E-2,2.8835022E-1,-1.854503E-1,-3.300749E-1,2.6239592E-1,2.3292139E-1,2.2041587E-2,-3.575271E-1,1.4582708E-1,2.1484132E-1,-2.5310524E-2,1.6339801E-1,-6.88624E-2,-3.5010344E-1,-6.506903E-2],"categories":[],"categories_nodes":[],"categories_segments":[],"categories_sizes":[],"default_left":[0,0,0,0,0,0,0,0,0,0,0,0,0,0,0,0,0,0,0,0,0,0,0,0,0,0,0,0,0,0,0,0,0,0,0,0,0,0,0,0,0,0,0],"id":25,"left_children":[1,3,5,7,9,-1,-1,11,13,-1,15,17,-1,19,21,23,25,27,29,31,33,35,37,39,-1,41,-1,-1,-1,-1,-1,-1,-1,-1,-1,-1,-1,-1,-1,-1,-1,-1,-1],"loss_changes":[3.4175289E0,2.2265859E0,2.4690986E-1,2.3323958E0,7.2028275E0,0E0,0E0,4.1043124E0,4.1949844E0,0E0,4.9025164E0,3.5554042E0,0E0,1.5508614E0,4.7442284E0,1.9011714E0,2.2401617E0,3.4493084E0,6.092579E0,5.896669E0,2.2380686E0,3.5163674E0,7.027495E-1,1.3635688E0,0E0,3.926258E-1,0E0,0E0,0E0,0E0,0E0,0E0,0E0,0E0,0E0,0E0,0E0,0E0,0E0,0E0,0E0,0E0,0E0],"parents":[2147483647,0,0,1,1,2,2,3,3,4,4,7,7,8,8,10,10,11,11,13,13,14,14,15,15,16,16,17,17,18,18,19,19,20,20,21,21,22,22,23,23,25,25],"right_children":[2,4,6,8,10,-1,-1,12,14,-1,16,18,-1,20,22,24,26,28,30,32,34,36,38,40,-1,42,-1,-1,-1,-1,-1,-1,-1,-1,-1,-1,-1,-1,-1,-1,-1,-1,-1],"split_conditions":[1E0,1E0,1E0,1E0,1E0,2.3765478E-1,4.6232127E-2,1E0,1E0,-4.157822E-1,3E0,1E0,-2.9567316E-1,2E0,3E0,1E0,1E0,1E0,2E0,1E0,3E0,1E0,1E0,1E0,-1.6551784E-1,1.3E1,5.4244876E-2,-2.9600475E-2,5.0856862E-2,2.8835022E-1,-1.854503E-1,-3.300749E-1,2.6239592E-1,2.3292139E-1,2.2041587E-2,-3.575271E-1,1.4582708E-1,2.1484132E-1,-2.5310524E-2,1.6339801E-1,-6.88624E-2,-3.5010344E-1,-6.506903E-2],"split_indices":[9,14,27,29,24,0,0,19,16,0,30,27,0,24,24,12,16,3,24,10,23,27,25,3,0,30,0,0,0,0,0,0,0,0,0,0,0,0,0,0,0,0,0],"split_type":[0,0,0,0,0,0,0,0,0,0,0,0,0,0,0,0,0,0,0,0,0,0,0,0,0,0,0,0,0,0,0,0,0,0,0,0,0,0,0,0,0,0,0],"sum_hessian":[3.4022568E2,3.3434467E2,5.88102E0,3.0940747E2,2.4937191E1,4.565603E0,1.3154175E0,2.7527347E2,3.413399E1,3.950474E0,2.0986717E1,2.71881E2,3.3924644E0,2.4926817E1,9.207177E0,1.4612015E1,6.3747025E0,2.6162198E2,1.0259044E1,4.0629215E0,2.0863895E1,5.403854E0,3.8033226E0,1.3074428E1,1.5375869E0,4.6175566E0,1.7571458E0,1.9956772E2,6.2054253E1,7.6424117E0,2.616632E0,1.9194609E0,2.1434605E0,1.4064387E1,6.799508E0,4.3814E0,1.022454E0,2.4834056E0,1.3199171E0,1.0854724E1,2.2197042E0,3.5479257E0,1.0696307E0],"tree_param":{"num_deleted":"0","num_feature":"33","num_nodes":"43","size_leaf_vector":"1"}},{"base_weights":[-5.041039E-3,-2.119671E-2,4.5233962E-1,-3.3565257E-3,-3.906438E-1,2.3132741E-1,1.2251707E-1,-1.3318171E-2,2.2823562E-1,-7.078464E-1,-2.719554E-2,-1.9405605E-1,4.5020318E-1,-3.4939285E-2,3.4865302E-1,-2.6494107E-1,5.2280556E-3,1.9796139E-1,-1.9564645E-1,1.876467E-1,-1.8912634E-2,-6.316741E-3,-4.6736822E-1,4.7085536E-1,-3.8465554E-1,4.377667E-1,-1.476337E-1,-1.7360596E-2,5.5856638E-2,-2.2496101E-1,1.9274412E-1,5.8322858E-2,2.4876842E-1,-1.6404599E-1,-8.953162E-3,1.5339589E-1,1.8049365E-2],"categories":[],"categories_nodes":[],"categories_segments":[],"categories_sizes":[],"default_left":[0,0,0,0,0,0,0,0,0,0,0,0,0,0,0,0,0,0,0,0,0,0,0,0,0,0,0,0,0,0,0,0,0,0,0,0,0],"id":26,"left_children":[1,3,5,7,9,-1,11,13,-1,15,17,-1,19,21,23,-1,-1,25,-1,-1,-1,27,29,31,33,35,-1,-1,-1,-1,-1,-1,-1,-1,-1,-1,-1],"loss_changes":[2.4751105E0,2.1291203E0,1.1070042E0,2.3649564E0,1.6963205E0,0E0,2.0069697E0,2.4097776E0,0E0,1.0205104E0,1.2512778E0,0E0,5.218556E-1,3.5863855E0,1.7366643E0,0E0,0E0,1.3125573E0,0E0,0E0,0E0,2.7200937E0,6.1221046E0,1.3574207E0,1.5801558E-1,1.2058413E-1,0E0,0E0,0E0,0E0,0E0,0E0,0E0,0E0,0E0,0E0,0E0],"parents":[2147483647,0,0,1,1,2,2,3,3,4,4,6,6,7,7,9,9,10,10,12,12,13,13,14,14,17,17,21,21,22,22,23,23,24,24,25,25],"right_children":[2,4,6,8,10,-1,12,14,-1,16,18,-1,20,22,24,-1,-1,26,-1,-1,-1,28,30,32,34,36,-1,-1,-1,-1,-1,-1,-1,-1,-1,-1,-1],"split_conditions":[1E0,1E0,2E0,1E0,1E0,2.3132741E-1,4E0,1E0,2.2823562E-1,1E0,1E0,-1.9405605E-1,2E0,1E0,6E0,-2.6494107E-1,5.2280556E-3,3E0,-1.9564645E-1,1.876467E-1,-1.8912634E-2,3E0,1E0,2E0,5E0,1E0,-1.476337E-1,-1.7360596E-2,5.5856638E-2,-2.2496101E-1,1.9274412E-1,5.8322858E-2,2.4876842E-1,-1.6404599E-1,-8.953162E-3,1.5339589E-1,1.8049365E-2],"split_indices":[7,0,23,9,3,0,30,2,0,16,25,0,0,14,23,0,0,30,0,0,0,24,15,17,18,18,0,0,0,0,0,0,0,0,0,0,0],"split_type":[0,0,0,0,0,0,0,0,0,0,0,0,0,0,0,0,0,0,0,0,0,0,0,0,0,0,0,0,0,0,0,0,0,0,0,0,0],"sum_hessian":[3.3266156E2,3.2223325E2,1.0428316E1,3.0835236E2,1.3880902E1,4.6227937E0,5.8055224E0,3.0535422E2,2.9981427E0,6.9060245E0,6.974878E0,1.443154E0,4.3623686E0,2.889955E2,1.6358686E1,5.3865056E0,1.5195185E0,5.629833E0,1.3450446E0,3.0887804E0,1.2735883E0,2.72006E2,1.6989515E1,1.432877E1,2.0299177E0,4.449296E0,1.1805375E0,2.1510222E2,5.690378E1,1.3800958E1,3.1885579E0,8.95976E0,5.3690095E0,1.0217692E0,1.0081484E0,3.427527E0,1.0217689E0],"tree_param":{"num_deleted":"0","num_feature":"33","num_nodes":"37","size_leaf_vector":"1"}},{"base_weights":[-2.6593506E-3,7.246723E-2,-8.702623E-2,1.2573431E-1,-2.855688E-1,-6.361819E-1,2.2797773E-2,1.4858273E-1,-3.108459E-1,-7.7861506E-1,2.2219963E-1,-5.8754303E-2,5.843764E-1,1.7254177E-1,-2.5984207E-1,-9.279082E-1,2.2412722E-1,-2.0331685E-1,2.1418901E-1,9.3839765E-1,1.339931E-1,1.9685727E-1,-2.3335366E-1,-1.0393066E0,6.9501884E-2,-8.359428E-2,-9.594816E-1,3.634241E-1,-4.9168494E-1,3.031801E-1,1.10389076E-1,-3.111948E-1,5.245896E-1,3.922393E-2,1.872465E-1,-2.0600097E-1,-4.489514E-1,-9.844768E-2,6.8999656E-2,-3.245574E-1,-1.6917566E-2,1.8923374E-1,-2.2943119E-2,-2.5243047E-1,1.6849422E-1,4.3206967E-2,-1.8722418E-1,2.2240719E-1,-4.6554618E-2],"categories":[],"categories_nodes":[],"categories_segments":[],"categories_sizes":[],"default_left":[0,0,0,0,0,0,0,0,0,0,0,0,0,0,0,0,0,0,0,0,0,0,0,0,0,0,0,0,0,0,0,0,0,0,0,0,0,0,0,0,0,0,0,0,0,0,0,0,0],"id":27,"left_children":[1,3,5,7,-1,9,11,13,-1,15,-1,17,19,21,-1,23,-1,25,27,29,31,33,-1,35,-1,37,39,41,43,-1,-1,45,47,-1,-1,-1,-1,-1,-1,-1,-1,-1,-1,-1,-1,-1,-1,-1,-1],"loss_changes":[2.0808132E0,9.596398E0,9.339974E0,4.5601788E0,0E0,5.6370697E0,5.9798393E0,4.1280727E0,0E0,6.130805E0,0E0,4.5522346E0,2.5135937E0,3.8669734E0,0E0,3.1072598E0,0E0,6.728999E0,4.3978486E0,2.998352E-3,1.6329067E0,4.367556E0,0E0,2.2658825E0,0E0,5.139525E0,1.0646591E0,4.004318E0,3.204298E0,0E0,0E0,7.4185973E-1,8.332726E-1,0E0,0E0,0E0,0E0,0E0,0E0,0E0,0E0,0E0,0E0,0E0,0E0,0E0,0E0,0E0,0E0],"parents":[2147483647,0,0,1,1,2,2,3,3,5,5,6,6,7,7,9,9,11,11,12,12,13,13,15,15,17,17,18,18,19,19,20,20,21,21,23,23,25,25,26,26,27,27,28,28,31,31,32,32],"right_children":[2,4,6,8,-1,10,12,14,-1,16,-1,18,20,22,-1,24,-1,26,28,30,32,34,-1,36,-1,38,40,42,44,-1,-1,46,48,-1,-1,-1,-1,-1,-1,-1,-1,-1,-1,-1,-1,-1,-1,-1,-1],"split_conditions":[1E0,2E0,1E0,1E0,-2.855688E-1,1E0,1E0,1E0,-3.108459E-1,1E0,2.2219963E-1,2E0,2E0,1E0,-2.5984207E-1,1E0,2.2412722E-1,4E0,1E0,2E0,3E0,1E0,-2.3335366E-1,2E0,6.9501884E-2,3E0,1E0,3E0,1E0,3.031801E-1,1.10389076E-1,3E0,1E0,3.922393E-2,1.872465E-1,-2.0600097E-1,-4.489514E-1,-9.844768E-2,6.8999656E-2,-3.245574E-1,-1.6917566E-2,1.8923374E-1,-2.2943119E-2,-2.5243047E-1,1.6849422E-1,4.3206967E-2,-1.8722418E-1,2.2240719E-1,-4.6554618E-2],"split_indices":[23,18,30,11,0,10,11,17,0,5,0,18,23,5,0,15,0,30,32,30,18,32,0,24,0,24,0,18,31,0,0,30,2,0,0,0,0,0,0,0,0,0,0,0,0,0,0,0,0],"split_type":[0,0,0,0,0,0,0,0,0,0,0,0,0,0,0,0,0,0,0,0,0,0,0,0,0,0,0,0,0,0,0,0,0,0,0,0,0,0,0,0,0,0,0,0,0,0,0,0,0],"sum_hessian":[3.2630243E2,1.7267804E2,1.536244E2,1.6497649E2,7.701552E0,2.4803934E1,1.2882047E2,1.626501E2,2.3263814E0,2.2872316E1,1.9316182E0,1.1326725E2,1.5553219E1,1.597091E2,2.940997E0,2.1190594E1,1.6817217E0,7.421492E1,3.9052326E1,8.101515E0,7.4517035E0,1.56498E2,3.2111084E0,1.942792E1,1.7626758E0,6.502944E1,9.185476E0,3.263732E1,6.4150033E0,6.5063405E0,1.5951744E0,3.5774908E0,3.8742127E0,1.3666014E2,1.9837856E1,1.238064E1,7.0472784E0,3.6509785E1,2.8519659E1,7.914978E0,1.2704984E0,2.0029968E1,1.2607355E1,4.9669423E0,1.4480612E0,1.6771282E0,1.9003627E0,2.8688028E0,1.0054098E0],"tree_param":{"num_deleted":"0","num_feature":"33","num_nodes":"49","size_leaf_vector":"1"}},{"base_weights":[-6.463355E-3,-1.695176E-2,6.083808E-1,4.274397E-2,-1.24010146E-1,2.1652184E-1,2.7822863E-2,6.4020984E-2,-2.8268844E-1,-2.3685904E-1,9.831734E-2,4.058327E-2,6.3351923E-1,-3.6414456E-1,4.474152E-1,2.5159824E-1,-2.1435699E-1,1.3198386E-1,-1.740415E-1,5.208042E-2,2.265812E-1,-6.15921E-1,-4.2588335E-2,-8.085381E-2,7.406346E-1,3.6615834E-1,-1.8250795E-1,-8.1250644E-1,4.155072E-1,7.10892E-2,-1.4929594E-1,-1.2184394E-1,1.653132E-1,-2.3723203E-1,8.614902E-2,-1.4438742E-1,1.20580785E-1,-2.9654637E-1,2.3964834E-1,2.6494533E-1,7.966868E-3,1.396515E-1,-1.2366753E-1,-2.8450218E-1,-1.0429176E-2,2.065978E-1,-8.193439E-2],"categories":[],"categories_nodes":[],"categories_segments":[],"categories_sizes":[],"default_left":[0,0,0,0,0,0,0,0,0,0,0,0,0,0,0,0,0,0,0,0,0,0,0,0,0,0,0,0,0,0,0,0,0,0,0,0,0,0,0,0,0,0,0,0,0,0,0],"id":28,"left_children":[1,3,5,7,9,-1,-1,11,-1,13,15,17,19,21,23,25,27,29,31,-1,-1,33,35,37,39,41,-1,43,45,-1,-1,-1,-1,-1,-1,-1,-1,-1,-1,-1,-1,-1,-1,-1,-1,-1,-1],"loss_changes":[2.056561E0,2.005411E0,2.4573529E-1,4.2870364E0,2.8406296E0,0E0,0E0,2.6216943E0,0E0,6.675983E0,1.8997805E0,3.7809575E0,3.040619E-1,5.1229534E0,1.9460819E0,2.8141716E0,5.3143067E0,9.036196E0,9.92562E0,0E0,0E0,5.848053E0,5.8497434E0,4.9797764E0,7.834635E-1,2.035151E0,0E0,7.185483E-1,1.5227925E0,0E0,0E0,0E0,0E0,0E0,0E0,0E0,0E0,0E0,0E0,0E0,0E0,0E0,0E0,0E0,0E0,0E0,0E0],"parents":[2147483647,0,0,1,1,2,2,3,3,4,4,7,7,9,9,10,10,11,11,12,12,13,13,14,14,15,15,16,16,17,17,18,18,21,21,22,22,23,23,24,24,25,25,27,27,28,28],"right_children":[2,4,6,8,10,-1,-1,12,-1,14,16,18,20,22,24,26,28,30,32,-1,-1,34,36,38,40,42,-1,44,46,-1,-1,-1,-1,-1,-1,-1,-1,-1,-1,-1,-1,-1,-1,-1,-1,-1,-1],"split_conditions":[1E0,2E0,1E0,1E0,1E0,2.1652184E-1,2.7822863E-2,1E0,-2.8268844E-1,1E0,1E0,1E0,1E0,1E0,2E0,6E0,1E0,1E0,1E0,5.208042E-2,2.265812E-1,1E0,1E0,1E0,4E0,1E0,-1.8250795E-1,7E0,6E0,7.10892E-2,-1.4929594E-1,-1.2184394E-1,1.653132E-1,-2.3723203E-1,8.614902E-2,-1.4438742E-1,1.20580785E-1,-2.9654637E-1,2.3964834E-1,2.6494533E-1,7.966868E-3,1.396515E-1,-1.2366753E-1,-2.8450218E-1,-1.0429176E-2,2.065978E-1,-8.193439E-2],"split_indices":[9,30,27,13,28,0,0,11,0,15,15,23,18,3,18,30,25,12,32,0,0,16,8,25,24,16,0,23,18,0,0,0,0,0,0,0,0,0,0,0,0,0,0,0,0,0,0],"split_type":[0,0,0,0,0,0,0,0,0,0,0,0,0,0,0,0,0,0,0,0,0,0,0,0,0,0,0,0,0,0,0,0,0,0,0,0,0,0,0,0,0,0,0,0,0,0,0],"sum_hessian":[3.1631003E2,3.1196082E2,4.349198E0,2.0066873E2,1.1129209E2,3.2377121E0,1.1114857E0,1.9734113E2,3.327597E0,7.377835E1,3.7513744E1,1.905695E2,6.77163E0,6.260137E1,1.1176978E1,2.530428E1,1.2209466E1,1.3392215E2,5.6647346E1,1.9251635E0,4.846466E0,3.4596836E1,2.8004536E1,4.2479877E0,6.92899E0,2.283633E1,2.4679492E0,6.1136646E0,6.095802E0,1.15318596E2,1.8603558E1,4.3244377E1,1.3402967E1,2.9089064E1,5.5077696E0,1.4052926E1,1.395161E1,2.0298991E0,2.2180886E0,5.5787983E0,1.350192E0,2.0608044E1,2.2282872E0,5.0179243E0,1.09574E0,4.3645024E0,1.7312993E0],"tree_param":{"num_deleted":"0","num_feature":"33","num_nodes":"47","size_leaf_vector":"1"}},{"base_weights":[-5.4619033E-3,-2.1882601E-2,4.446872E-1,-4.800898E-2,1.8685609E-1,-5.9534457E-2,5.708729E-1,-3.3294305E-2,-2.8457725E-1,3.3588496E-1,-3.1268665E-1,2.4565978E-1,1.9090885E-1,-2.038485E-2,-2.4680121E-1,1.7197432E-1,2.672967E-1,-6.53175E-1,4.2633906E-1,-5.6813814E-2,1.4791156E-1,-4.1157253E-2,5.09846E-1,2.701494E-1,-4.5604807E-1,-2.6039654E-1,-3.3857256E-2,1.7813207E-1,9.60416E-3,1.00367464E-1,-1.3832994E-1,-1.9168882E-2,1.2017156E-1,2.4023707E-1,-1.6594107E-1,3.4766626E-2,2.168685E-1,-1.8116502E-1,-3.3494476E-2],"categories":[],"categories_nodes":[],"categories_segments":[],"categories_sizes":[],"default_left":[0,0,0,0,0,0,0,0,0,0,0,0,0,0,0,0,0,0,0,0,0,0,0,0,0,0,0,0,0,0,0,0,0,0,0,0,0,0,0],"id":29,"left_children":[1,3,5,7,9,-1,11,13,-1,15,17,-1,19,21,-1,23,-1,25,27,29,-1,31,33,35,37,-1,-1,-1,-1,-1,-1,-1,-1,-1,-1,-1,-1,-1,-1],"loss_changes":[2.2883008E0,1.6361139E0,9.9753904E-1,3.4929612E0,2.5911002E0,0E0,7.2627854E-1,2.6605432E0,0E0,2.2309155E0,2.3396237E0,0E0,4.024657E-1,2.8794508E0,0E0,1.4468839E0,0E0,5.987432E-1,1.9151676E-1,7.3111826E-1,0E0,2.5434232E0,3.4919157E0,1.2567775E0,9.929097E-2,0E0,0E0,0E0,0E0,0E0,0E0,0E0,0E0,0E0,0E0,0E0,0E0,0E0,0E0],"parents":[2147483647,0,0,1,1,2,2,3,3,4,4,6,6,7,7,9,9,10,10,12,12,13,13,15,15,17,17,18,18,19,19,21,21,22,22,23,23,24,24],"right_children":[2,4,6,8,10,-1,12,14,-1,16,18,-1,20,22,-1,24,-1,26,28,30,-1,32,34,36,38,-1,-1,-1,-1,-1,-1,-1,-1,-1,-1,-1,-1,-1,-1],"split_conditions":[1E0,1E0,1E0,1E0,1E0,-5.9534457E-2,3E0,6E0,-2.8457725E-1,4E0,1E0,2.4565978E-1,2E0,1E0,-2.4680121E-1,1E0,2.672967E-1,1E0,2E0,5E0,1.4791156E-1,1E0,2E0,5E0,1E0,-2.6039654E-1,-3.3857256E-2,1.7813207E-1,9.60416E-3,1.00367464E-1,-1.3832994E-1,-1.9168882E-2,1.2017156E-1,2.4023707E-1,-1.6594107E-1,3.4766626E-2,2.168685E-1,-1.8116502E-1,-3.3494476E-2],"split_indices":[7,29,18,19,17,0,24,23,0,24,27,0,17,27,0,12,0,15,17,18,0,16,24,30,13,0,0,0,0,0,0,0,0,0,0,0,0,0,0],"split_type":[0,0,0,0,0,0,0,0,0,0,0,0,0,0,0,0,0,0,0,0,0,0,0,0,0,0,0,0,0,0,0,0,0,0,0,0,0,0,0],"sum_hessian":[3.0725797E2,2.973621E2,9.89589E0,2.649679E2,3.239419E1,1.5292152E0,8.366675E0,2.6172845E2,3.2394307E0,2.5202986E1,7.1912045E0,4.363569E0,4.0031066E0,2.5852634E2,3.2021139E0,2.0468786E1,4.7341995E0,5.002562E0,2.1886425E0,2.6457524E0,1.3573543E0,2.496677E2,8.858641E0,1.8194403E1,2.2743843E0,3.1455483E0,1.8570138E0,1.1812677E0,1.0073749E0,1.4319825E0,1.2137699E0,2.3825816E2,1.1409534E1,7.148669E0,1.7099718E0,1.4507379E1,3.6870234E0,1.0641539E0,1.2102304E0],"tree_param":{"num_deleted":"0","num_feature":"33","num_nodes":"39","size_leaf_vector":"1"}},{"base_weights":[-2.808113E-3,-1.5907343E-2,3.844967E-1,3.7429925E-2,-1.1966281E-1,2.200246E-1,6.087689E-2,5.3801797E-2,-2.3840468E-1,-6.280941E-1,-3.669342E-2,-2.584523E-1,4.4201654E-1,6.774667E-2,-2.127975E-1,-3.102155E-1,5.0485384E-1,-6.104165E-3,-2.3487589E-1,1.7863385E-1,-1.5877223E-2,4.955713E-2,5.208398E-1,3.9947875E-2,2.141602E-1,-1.3609952E-1,2.7660733E-1,9.28288E-3,1.5532464E-1,3.369735E-2,1.9060458E-1,-2.3185365E-1,7.5310403E-3,2.6595524E-1,-8.4088095E-2],"categories":[],"categories_nodes":[],"categories_segments":[],"categories_sizes":[],"default_left":[0,0,0,0,0,0,0,0,0,0,0,0,0,0,0,0,0,0,0,0,0,0,0,0,0,0,0,0,0,0,0,0,0,0,0],"id":30,"left_children":[1,3,5,7,9,-1,11,13,-1,15,17,-1,19,21,-1,-1,23,25,-1,-1,-1,27,29,-1,-1,31,33,-1,-1,-1,-1,-1,-1,-1,-1],"loss_changes":[1.5424638E0,1.630808E0,1.078496E0,2.697378E0,4.1961255E0,0E0,2.578356E0,2.0916512E0,0E0,6.9471354E0,1.9822223E0,0E0,4.1759312E-1,1.5359902E0,0E0,0E0,2.4344158E-1,3.147829E0,0E0,0E0,0E0,1.5813918E0,2.658558E-1,0E0,0E0,6.0387278E0,9.414582E0,0E0,0E0,0E0,0E0,0E0,0E0,0E0,0E0],"parents":[2147483647,0,0,1,1,2,2,3,3,4,4,6,6,7,7,9,9,10,10,12,12,13,13,16,16,17,17,21,21,22,22,25,25,26,26],"right_children":[2,4,6,8,10,-1,12,14,-1,16,18,-1,20,22,-1,-1,24,26,-1,-1,-1,28,30,-1,-1,32,34,-1,-1,-1,-1,-1,-1,-1,-1],"split_conditions":[1E0,2E0,2E0,1E0,2E0,2.200246E-1,3E0,4E0,-2.3840468E-1,3E0,1E0,-2.584523E-1,2E0,1E0,-2.127975E-1,-3.102155E-1,1E0,1E0,-2.3487589E-1,1.7863385E-1,-1.5877223E-2,4E0,1E0,3.9947875E-2,2.141602E-1,1E0,1E0,9.28288E-3,1.5532464E-1,3.369735E-2,1.9060458E-1,-2.3185365E-1,7.5310403E-3,2.6595524E-1,-8.4088095E-2],"split_indices":[7,30,23,13,24,0,23,23,0,23,5,0,0,11,0,0,13,8,0,0,0,24,18,0,0,23,23,0,0,0,0,0,0,0,0],"split_type":[0,0,0,0,0,0,0,0,0,0,0,0,0,0,0,0,0,0,0,0,0,0,0,0,0,0,0,0,0,0,0,0,0,0,0],"sum_hessian":[3.0182434E2,2.928777E2,8.946636E0,1.9385994E2,9.901776E1,3.6957192E0,5.250917E0,1.9103662E2,2.8233178E0,1.2969749E1,8.604801E1,1.1668097E0,4.084107E0,1.8850327E2,2.5333583E0,9.612641E0,3.357108E0,8.362811E1,2.4198983E0,2.9626358E0,1.1214714E0,1.8229439E2,6.2088785E0,1.7975545E0,1.5595535E0,5.7641983E1,2.5986132E1,1.7634924E2,5.9451404E0,1.7930422E0,4.4158363E0,1.0878412E1,4.6763573E1,1.2120287E1,1.3865844E1],"tree_param":{"num_deleted":"0","num_feature":"33","num_nodes":"35","size_leaf_vector":"1"}},{"base_weights":[-3.918851E-3,-1.328432E-2,5.752343E-1,-2.968577E-2,2.600367E-1,2.1512051E-1,3.3998564E-2,-1.0173934E-3,-3.4566385E-1,3.8109043E-1,-3.198321E-1,-2.5787963E-2,2.4609682E-1,-8.301278E-1,1.11441255E-1,2.0404573E-1,2.1638411E-1,-1.868489E-1,4.087201E-2,5.371311E-2,-1.948562E-1,3.8849282E-1,-3.4885445E-1,-3.516576E-1,2.597423E-2,3.0934647E-1,-1.8572535E-1,-2.0536222E-1,1.9297388E-1,2.6496295E-2,-2.5703406E-1,-8.3064735E-2,1.2431885E-1,7.035735E-2,2.4655032E-1,-2.6855206E-1,1.14332676E-1,-7.866417E-2,1.3573211E-1,1.6271992E-1,-1.8503447E-1,-2.1977066E-1,2.1163002E-1],"categories":[],"categories_nodes":[],"categories_segments":[],"categories_sizes":[],"default_left":[0,0,0,0,0,0,0,0,0,0,0,0,0,0,0,0,0,0,0,0,0,0,0,0,0,0,0,0,0,0,0,0,0,0,0,0,0,0,0,0,0,0,0],"id":31,"left_children":[1,3,5,7,9,-1,-1,11,13,15,17,19,21,23,25,27,-1,-1,-1,29,31,33,35,-1,37,39,-1,41,-1,-1,-1,-1,-1,-1,-1,-1,-1,-1,-1,-1,-1,-1,-1],"loss_changes":[1.6137599E0,1.3184013E0,2.2892916E-1,2.506357E0,1.2909274E0,0E0,0E0,1.5654469E0,5.1892796E0,7.1013284E-1,5.5745625E-1,3.1342652E0,2.109505E0,3.3371148E0,2.0310366E0,2.0662367E0,0E0,0E0,0E0,5.081345E0,3.8402362E0,1.0932212E0,2.3457444E0,0E0,6.35069E-1,2.639316E0,0E0,3.553918E0,0E0,0E0,0E0,0E0,0E0,0E0,0E0,0E0,0E0,0E0,0E0,0E0,0E0,0E0,0E0],"parents":[2147483647,0,0,1,1,2,2,3,3,4,4,7,7,8,8,9,9,10,10,11,11,12,12,13,13,14,14,15,15,19,19,20,20,21,21,22,22,24,24,25,25,27,27],"right_children":[2,4,6,8,10,-1,-1,12,14,16,18,20,22,24,26,28,-1,-1,-1,30,32,34,36,-1,38,40,-1,42,-1,-1,-1,-1,-1,-1,-1,-1,-1,-1,-1,-1,-1,-1,-1],"split_conditions":[1E0,1E0,4E0,1E0,4E0,2.1512051E-1,3.3998564E-2,1E0,3E0,1E0,1E0,1E0,1E0,1E0,1E0,2E0,2.1638411E-1,-1.868489E-1,4.087201E-2,2E0,1E0,4E0,3E0,-3.516576E-1,1E0,2E0,-1.8572535E-1,1E0,1.9297388E-1,2.6496295E-2,-2.5703406E-1,-8.3064735E-2,1.2431885E-1,7.035735E-2,2.4655032E-1,-2.6855206E-1,1.14332676E-1,-7.866417E-2,1.3573211E-1,1.6271992E-1,-1.8503447E-1,-2.1977066E-1,2.1163002E-1],"split_indices":[9,2,18,17,24,0,0,29,23,22,13,23,16,25,13,17,0,0,0,18,16,24,24,0,19,17,0,13,0,0,0,0,0,0,0,0,0,0,0,0,0,0,0],"split_type":[0,0,0,0,0,0,0,0,0,0,0,0,0,0,0,0,0,0,0,0,0,0,0,0,0,0,0,0,0,0,0,0,0,0,0,0,0,0,0,0,0,0,0],"sum_hessian":[2.95111E2,2.9137622E2,3.734774E0,2.7572208E2,1.5654143E1,2.4347432E0,1.3000311E0,2.5370674E2,2.2015339E1,1.3234169E1,2.4199739E0,2.3140637E2,2.230038E1,1.0291653E1,1.1723687E1,9.756436E0,3.4777334E0,1.2343072E0,1.1856668E0,1.5785867E2,7.354769E1,1.8273748E1,4.026633E0,7.0896797E0,3.201973E0,9.678301E0,2.0453856E0,5.3250356E0,4.431401E0,1.529481E2,4.910564E0,6.530142E1,8.246271E0,1.462029E1,3.6534584E0,2.1735659E0,1.8530668E0,2.140595E0,1.0613779E0,8.063514E0,1.6147876E0,3.4966884E0,1.8283471E0],"tree_param":{"num_deleted":"0","num_feature":"33","num_nodes":"43","size_leaf_vector":"1"}},{"base_weights":[-3.266626E-3,-1.5182855E-2,3.55181E-1,2.969752E-3,-2.7539006E-1,-8.053058E-2,4.9483418E-1,1.6374141E-2,-4.7475323E-1,-5.760618E-1,9.2127435E-2,2.2700764E-1,1.4216053E-1,-5.8954798E-2,9.728485E-2,-2.9184642E-1,2.456607E-1,-7.878296E-1,7.373924E-2,3.2774138E-1,-3.4928864E-1,-1.2511782E-1,1.3094167E-1,5.3933684E-2,-9.276555E-1,-8.460238E-2,2.578098E-1,-6.319963E-2,1.6616827E-1,-8.9650947E-1,-2.2495955E-3,-1.2532571E-1,5.86828E-1,-5.654451E-3,-1.7345434E-1,8.030309E-2,-1.3064378E-1,2.9000398E-2,-4.0570223E-1,-3.2675412E-1,1.3057663E-1,-1.1716389E-1,8.154876E-2,3.5967294E-2,1.9525693E-1,-2.944016E-1,-6.1678108E-2,3.861649E-2,2.1588802E-1],"categories":[],"categories_nodes":[],"categories_segments":[],"categories_sizes":[],"default_left":[0,0,0,0,0,0,0,0,0,0,0,0,0,0,0,0,0,0,0,0,0,0,0,0,0,0,0,0,0,0,0,0,0,0,0,0,0,0,0,0,0,0,0,0,0,0,0,0,0],"id":32,"left_children":[1,3,5,7,9,-1,11,13,15,17,19,-1,21,23,25,-1,27,29,-1,31,33,35,-1,37,39,41,43,-1,-1,45,-1,-1,47,-1,-1,-1,-1,-1,-1,-1,-1,-1,-1,-1,-1,-1,-1,-1,-1],"loss_changes":[1.2389508E0,1.3255802E0,9.456339E-1,1.6929735E0,2.0753264E0,0E0,6.2910616E-1,1.5718193E0,2.8281703E0,1.969511E0,1.0606018E0,0E0,4.1885263E-1,1.316023E1,3.6499453E0,0E0,6.438586E-1,7.014847E-1,0E0,1.4903846E0,2.651678E-1,5.071447E-1,0E0,7.297636E0,3.8708363E0,6.540843E0,3.5135179E0,0E0,0E0,2.2735882E-1,0E0,0E0,2.2372687E-1,0E0,0E0,0E0,0E0,0E0,0E0,0E0,0E0,0E0,0E0,0E0,0E0,0E0,0E0,0E0,0E0],"parents":[2147483647,0,0,1,1,2,2,3,3,4,4,6,6,7,7,8,8,9,9,10,10,12,12,13,13,14,14,16,16,17,17,19,19,20,20,21,21,23,23,24,24,25,25,26,26,29,29,32,32],"right_children":[2,4,6,8,10,-1,12,14,16,18,20,-1,22,24,26,-1,28,30,-1,32,34,36,-1,38,40,42,44,-1,-1,46,-1,-1,48,-1,-1,-1,-1,-1,-1,-1,-1,-1,-1,-1,-1,-1,-1,-1,-1],"split_conditions":[1E0,4E0,1E0,3E0,3E0,-8.053058E-2,3E0,2E0,1E0,1E0,9E0,2.2700764E-1,1E0,1E0,1E0,-2.9184642E-1,1E0,8E0,7.373924E-2,5E0,2E0,1E0,1.3094167E-1,1E0,3E0,3E0,1E0,-6.319963E-2,1.6616827E-1,1E0,-2.2495955E-3,-1.2532571E-1,5E0,-5.654451E-3,-1.7345434E-1,8.030309E-2,-1.3064378E-1,2.9000398E-2,-4.0570223E-1,-3.2675412E-1,1.3057663E-1,-1.1716389E-1,8.154876E-2,3.5967294E-2,1.9525693E-1,-2.944016E-1,-6.1678108E-2,3.861649E-2,2.1588802E-1],"split_indices":[7,23,18,18,18,0,24,24,13,27,23,0,21,18,18,0,3,30,0,23,17,25,0,21,23,24,28,0,0,8,0,0,18,0,0,0,0,0,0,0,0,0,0,0,0,0,0,0,0],"split_type":[0,0,0,0,0,0,0,0,0,0,0,0,0,0,0,0,0,0,0,0,0,0,0,0,0,0,0,0,0,0,0,0,0,0,0,0,0,0,0,0,0,0,0,0,0,0,0,0,0],"sum_hessian":[2.8779858E2,2.7946567E2,8.332911E0,2.6216507E2,1.7300606E1,1.3559238E0,6.976987E0,2.5594914E2,6.215931E0,9.203577E0,8.097028E0,3.3465827E0,3.630404E0,1.3268709E2,1.2326206E2,3.4679508E0,2.7479804E0,7.3508854E0,1.8526913E0,5.4470744E0,2.6499534E0,2.2038572E0,1.4265469E0,1.1825734E2,1.4429739E1,5.8007748E1,6.525432E1,1.2354665E0,1.5125139E0,6.321571E0,1.0293146E0,1.2468871E0,4.2001877E0,1.5273461E0,1.1226074E0,1.0334499E0,1.1704072E0,1.1567348E2,2.5838623E0,1.3080367E1,1.3493718E0,3.1163107E1,2.6844639E1,4.927049E1,1.5983828E1,5.2559166E0,1.0656546E0,1.3865169E0,2.8136706E0],"tree_param":{"num_deleted":"0","num_feature":"33","num_nodes":"49","size_leaf_vector":"1"}},{"base_weights":[-6.5677613E-3,-1.4480646E-2,5.3411806E-1,2.9762486E-2,-1.07011735E-1,1.9990091E-1,3.0687347E-2,4.3004774E-2,-2.3153028E-1,-1.8289717E-1,1.6023861E-1,2.582932E-2,4.8880428E-1,-3.258351E-1,1.5632805E-1,4.677254E-1,-1.8949527E-1,7.935322E-3,3.0028933E-1,3.7744816E-2,1.7808142E-1,-5.587724E-1,-2.1514751E-2,3.2685527E-1,-1.8131064E-1,6.268193E-1,-1.07683435E-1,-7.0827764E-1,3.3853757E-1,2.0507945E-2,-5.1310252E-2,-5.600058E-2,1.4855182E-1,-2.293897E-1,8.928604E-2,1.0119933E-1,-1.03400305E-1,1.5936673E-1,-6.997666E-2,-2.1881378E-1,1.5677632E-1,8.144034E-2,2.3823212E-1,-2.4462892E-1,-4.106468E-2,1.7564309E-1,-6.969501E-2],"categories":[],"categories_nodes":[],"categories_segments":[],"categories_sizes":[],"default_left":[0,0,0,0,0,0,0,0,0,0,0,0,0,0,0,0,0,0,0,0,0,0,0,0,0,0,0,0,0,0,0,0,0,0,0,0,0,0,0,0,0,0,0,0,0,0,0],"id":33,"left_children":[1,3,5,7,9,-1,-1,11,-1,13,15,17,19,21,23,25,27,29,31,-1,-1,33,35,37,39,41,-1,43,45,-1,-1,-1,-1,-1,-1,-1,-1,-1,-1,-1,-1,-1,-1,-1,-1,-1,-1],"loss_changes":[1.2100515E0,1.1410402E0,1.647774E-1,2.0373068E0,1.8570772E0,0E0,0E0,1.4168627E0,0E0,3.4771357E0,2.2893426E0,8.856818E-1,1.8666768E-1,3.5350032E0,1.3042519E0,1.6951387E0,3.0575006E0,1.8585771E0,1.1401795E0,0E0,0E0,5.2172556E0,2.7526176E0,1.8093187E0,3.428626E0,3.6332893E-1,0E0,2.2585487E-1,9.499868E-1,0E0,0E0,0E0,0E0,0E0,0E0,0E0,0E0,0E0,0E0,0E0,0E0,0E0,0E0,0E0,0E0,0E0,0E0],"parents":[2147483647,0,0,1,1,2,2,3,3,4,4,7,7,9,9,10,10,11,11,12,12,13,13,14,14,15,15,16,16,17,17,18,18,21,21,22,22,23,23,24,24,25,25,27,27,28,28],"right_children":[2,4,6,8,10,-1,-1,12,-1,14,16,18,20,22,24,26,28,30,32,-1,-1,34,36,38,40,42,-1,44,46,-1,-1,-1,-1,-1,-1,-1,-1,-1,-1,-1,-1,-1,-1,-1,-1,-1,-1],"split_conditions":[1E0,2E0,4E0,1E0,1E0,1.9990091E-1,3.0687347E-2,1E0,-2.3153028E-1,1E0,1E0,1E0,1E0,1E0,1E0,4E0,1E0,1E0,2E0,3.7744816E-2,1.7808142E-1,1E0,1E0,1E0,1E0,2E0,-1.07683435E-1,6E0,6E0,2.0507945E-2,-5.1310252E-2,-5.600058E-2,1.4855182E-1,-2.293897E-1,8.928604E-2,1.0119933E-1,-1.03400305E-1,1.5936673E-1,-6.997666E-2,-2.1881378E-1,1.5677632E-1,8.144034E-2,2.3823212E-1,-2.4462892E-1,-4.106468E-2,1.7564309E-1,-6.969501E-2],"split_indices":[9,30,18,13,15,0,0,11,0,28,28,29,18,12,25,24,25,23,23,0,0,16,23,3,29,18,0,23,18,0,0,0,0,0,0,0,0,0,0,0,0,0,0,0,0,0,0],"split_type":[0,0,0,0,0,0,0,0,0,0,0,0,0,0,0,0,0,0,0,0,0,0,0,0,0,0,0,0,0,0,0,0,0,0,0,0,0,0,0,0,0,0,0,0,0,0,0],"sum_hessian":[2.8002133E2,2.7694153E2,3.079795E0,1.8781662E2,8.912492E1,1.942094E0,1.1377009E0,1.8569504E2,2.1215699E0,6.966053E1,1.9464394E1,1.7982481E2,5.870226E0,4.9037342E1,2.0623192E1,1.0178266E1,9.286128E0,1.6978429E2,1.0040531E1,1.8081223E0,4.0621037E0,2.7302748E1,2.1734592E1,1.3723807E1,6.899385E0,8.7383175E0,1.4399481E0,4.5119095E0,4.7742186E0,1.2739174E2,4.2392544E1,2.881825E0,7.1587067E0,2.2097977E1,5.204772E0,1.0277759E1,1.1456834E1,1.0092824E1,3.6309838E0,3.858716E0,3.040669E0,3.6364834E0,5.101834E0,3.4397748E0,1.0721351E0,3.3147242E0,1.4594944E0],"tree_param":{"num_deleted":"0","num_feature":"33","num_nodes":"47","size_leaf_vector":"1"}},{"base_weights":[-4.113089E-3,-1.6222248E-2,3.507736E-1,-5.461719E-2,1.03587165E-1,2.0572242E-1,6.735457E-2,9.725718E-3,-2.2472814E-1,-2.4354646E-2,4.9099532E-1,-1.8438622E-1,3.9171395E-1,4.5108605E-2,-6.942598E-1,-3.0869284E-1,-4.9720205E-2,-8.889963E-1,9.201494E-2,-9.078987E-2,6.828077E-1,1.5655577E-1,-4.777064E-3,-2.315423E-2,5.111112E-1,-3.4884837E-1,3.6821228E-2,2.4843265E-1,-2.9100895E-1,-5.614113E-1,5.551635E-2,3.326277E-1,-2.1417813E-1,-2.3156576E-1,2.2447377E-1,3.0243993E-1,2.8538755E-1,3.610804E-2,-1.1552849E-1,8.316383E-2,2.0737395E-1,1.814223E-1,-1.7056301E-1,1.8961714E-1,-9.842529E-2,-1.5454862E-1,9.629384E-2,1.7480749E-1,-3.6200443E-1,-2.4413863E-1,6.625262E-2,-4.4235326E-2,2.4022001E-1],"categories":[],"categories_nodes":[],"categories_segments":[],"categories_sizes":[],"default_left":[0,0,0,0,0,0,0,0,0,0,0,0,0,0,0,0,0,0,0,0,0,0,0,0,0,0,0,0,0,0,0,0,0,0,0,0,0,0,0,0,0,0,0,0,0,0,0,0,0,0,0,0,0],"id":34,"left_children":[1,3,5,7,9,-1,11,13,15,17,19,-1,21,23,25,-1,27,29,31,33,35,-1,-1,37,39,-1,41,43,45,-1,-1,47,49,-1,-1,-1,51,-1,-1,-1,-1,-1,-1,-1,-1,-1,-1,-1,-1,-1,-1,-1,-1],"loss_changes":[1.1907864E0,1.2367682E0,8.2185125E-1,2.2277408E0,3.2484252E0,0E0,1.5816369E0,3.7300236E0,7.808777E0,5.1165853E0,1.8762696E0,0E0,2.5863206E-1,4.539175E0,2.4979558E0,0E0,3.4473376E0,6.708132E0,3.3872426E0,3.3855975E0,1.3082757E0,0E0,0E0,6.5441837E0,5.7637215E-1,0E0,1.6394782E0,4.9677057E0,3.7855456E0,0E0,0E0,1.0555411E1,5.504577E0,0E0,0E0,0E0,1.6686286E0,0E0,0E0,0E0,0E0,0E0,0E0,0E0,0E0,0E0,0E0,0E0,0E0,0E0,0E0,0E0,0E0],"parents":[2147483647,0,0,1,1,2,2,3,3,4,4,6,6,7,7,8,8,9,9,10,10,12,12,13,13,14,14,16,16,17,17,18,18,19,19,20,20,23,23,24,24,26,26,27,27,28,28,31,31,32,32,36,36],"right_children":[2,4,6,8,10,-1,12,14,16,18,20,-1,22,24,26,-1,28,30,32,34,36,-1,-1,38,40,-1,42,44,46,-1,-1,48,50,-1,-1,-1,52,-1,-1,-1,-1,-1,-1,-1,-1,-1,-1,-1,-1,-1,-1,-1,-1],"split_conditions":[1E0,1E0,2E0,1E0,1E0,2.0572242E-1,3E0,1E0,2E0,1E0,1E0,-1.8438622E-1,2E0,3E0,2E0,-3.0869284E-1,2E0,1E0,2E0,1E0,2E0,1.5655577E-1,-4.777064E-3,1E0,2E0,-3.4884837E-1,3E0,2E0,1E0,-5.614113E-1,5.551635E-2,3E0,3E0,-2.3156576E-1,2.2447377E-1,3.0243993E-1,1.3E1,3.610804E-2,-1.1552849E-1,8.316383E-2,2.0737395E-1,1.814223E-1,-1.7056301E-1,1.8961714E-1,-9.842529E-2,-1.5454862E-1,9.629384E-2,1.7480749E-1,-3.6200443E-1,-2.4413863E-1,6.625262E-2,-4.4235326E-2,2.4022001E-1],"split_indices":[7,3,23,18,21,0,23,22,24,30,23,0,0,24,23,0,30,0,23,28,30,0,0,30,23,0,24,23,13,0,0,24,24,0,0,0,30,0,0,0,0,0,0,0,0,0,0,0,0,0,0,0,0],"split_type":[0,0,0,0,0,0,0,0,0,0,0,0,0,0,0,0,0,0,0,0,0,0,0,0,0,0,0,0,0,0,0,0,0,0,0,0,0,0,0,0,0,0,0,0,0,0,0,0,0,0,0,0,0],"sum_hessian":[2.7477176E2,2.6662836E2,8.143391E0,2.0233185E2,6.429651E1,3.081679E0,5.0617113E0,1.4748851E2,5.484335E1,4.903861E1,1.52579E1,1.3430445E0,3.718667E0,1.413215E2,6.1670094E0,8.929283E0,4.5914066E1,5.0294795E0,4.400913E1,3.9137619E0,1.1344138E1,2.6063879E0,1.112279E0,1.2409381E2,1.7227688E1,3.398358E0,2.7686515E0,2.0523823E1,2.5390242E1,2.2391262E0,2.7903533E0,2.4595303E1,1.9413826E1,2.2043722E0,1.7093897E0,5.392875E0,5.9512634E0,8.933768E1,3.475613E1,8.599932E0,8.627755E0,1.4290375E0,1.3396142E0,1.2265684E1,8.258139E0,1.8699419E1,6.6908226E0,2.1692734E1,2.9025698E0,7.7965775E0,1.1617249E1,3.622558E0,2.328705E0],"tree_param":{"num_deleted":"0","num_feature":"33","num_nodes":"53","size_leaf_vector":"1"}},{"base_weights":[-5.588688E-3,-2.4162691E-2,3.0442452E-1,-3.2276977E-2,1.877365E-1,4.6525115E-1,-3.3282277E-1,-1.5078512E-2,-3.0540255E-1,5.332483E-1,2.1185903E-2,-1.518712E-1,1.057006E-2,-2.934037E-3,-3.8365474E-1,-6.485411E-1,3.7441936E-1,2.2127007E-1,1.9744998E-1,5.193642E-3,-2.2506575E-1,1.8588814E-1,-6.777899E-1,-3.3360687E-1,1.986903E-1,2.9316217E-1,-1.5614752E-1,2.0235483E-1,-1.4034218E-1,-9.019721E-3,6.5776914E-2,-2.6941195E-1,3.571315E-2],"categories":[],"categories_nodes":[],"categories_segments":[],"categories_sizes":[],"default_left":[0,0,0,0,0,0,0,0,0,0,0,0,0,0,0,0,0,0,0,0,0,0,0,0,0,0,0,0,0,0,0,0,0],"id":35,"left_children":[1,3,5,7,-1,9,11,13,15,17,-1,-1,-1,19,21,23,25,27,-1,29,-1,-1,31,-1,-1,-1,-1,-1,-1,-1,-1,-1,-1],"loss_changes":[1.5392362E0,1.3488148E0,1.703586E0,1.1686411E0,0E0,2.973199E-1,2.4941418E-1,1.0553573E0,3.6822143E0,2.6341367E-1,0E0,0E0,0E0,1.3978271E0,2.6394699E0,6.911868E0,3.5185385E0,1.7233278E0,0E0,1.7276745E0,0E0,0E0,1.2114532E0,0E0,0E0,0E0,0E0,0E0,0E0,0E0,0E0,0E0,0E0],"parents":[2147483647,0,0,1,1,2,2,3,3,5,5,6,6,7,7,8,8,9,9,13,13,14,14,15,15,16,16,17,17,19,19,22,22],"right_children":[2,4,6,8,-1,10,12,14,16,18,-1,-1,-1,20,22,24,26,28,-1,30,-1,-1,32,-1,-1,-1,-1,-1,-1,-1,-1,-1,-1],"split_conditions":[1E0,1E0,4E0,1E0,1.877365E-1,4E0,2E0,1E0,1E0,1E0,2.1185903E-2,-1.518712E-1,1.057006E-2,1E0,1E0,1E0,1E0,1E0,1.9744998E-1,1E0,-2.2506575E-1,1.8588814E-1,1E0,-3.3360687E-1,1.986903E-1,2.9316217E-1,-1.5614752E-1,2.0235483E-1,-1.4034218E-1,-9.019721E-3,6.5776914E-2,-2.6941195E-1,3.571315E-2],"split_indices":[2,9,24,14,0,23,17,5,28,17,0,0,0,26,30,15,30,18,0,8,0,0,26,0,0,0,0,0,0,0,0,0,0],"split_type":[0,0,0,0,0,0,0,0,0,0,0,0,0,0,0,0,0,0,0,0,0,0,0,0,0,0,0,0,0,0,0,0,0],"sum_hessian":[2.6503525E2,2.5092357E2,1.4111671E1,2.4876817E2,2.1553957E0,1.1483423E1,2.6282482E0,2.3502412E2,1.3744042E1,9.495961E0,1.9874623E0,1.5313148E0,1.0969334E0,2.2850298E2,6.521143E0,9.164365E0,4.579678E0,3.5074837E0,5.988477E0,2.2702682E2,1.4761564E0,1.2275202E0,5.293623E0,6.8825393E0,2.2818253E0,2.6815193E0,1.8981587E0,2.1285467E0,1.378937E0,1.9565846E2,3.1368368E1,4.0477805E0,1.2458422E0],"tree_param":{"num_deleted":"0","num_feature":"33","num_nodes":"33","size_leaf_vector":"1"}},{"base_weights":[-3.995472E-3,-2.0029128E-2,2.9000452E-1,-2.7462956E-2,1.9342503E-1,4.4743282E-1,-1.6342145E-1,1.4238315E-2,-1.762291E-1,-1.4192942E-1,2.4027379E-1,-3.2746978E-2,3.4869882E-1,-2.8111175E-1,4.3930348E-2,-2.2226508E-1,1.7991503E-1,-2.6143456E-3,-4.8832598E-1,5.367093E-1,-3.1522092E-1,1.2259233E-1,-2.0995414E-1,-2.0514121E-2,9.093143E-2,-3.4803322E-1,5.6092143E-3,2.4056405E-1,4.7887817E-2,-2.2385773E-1,1.1407202E-1,-8.202535E-3,1.3580878E-1],"categories":[],"categories_nodes":[],"categories_segments":[],"categories_sizes":[],"default_left":[0,0,0,0,0,0,0,0,0,0,0,0,0,0,0,0,0,0,0,0,0,0,0,0,0,0,0,0,0,0,0,0,0],"id":36,"left_children":[1,3,5,7,-1,9,-1,11,13,15,-1,17,19,-1,21,-1,-1,23,25,27,29,31,-1,-1,-1,-1,-1,-1,-1,-1,-1,-1,-1],"loss_changes":[1.2400885E0,1.2493793E0,2.0317025E0,1.537536E0,0E0,2.612773E0,0E0,3.0630143E0,9.12781E0,2.8194673E0,0E0,2.3486724E0,3.1656039E0,0E0,2.603289E0,0E0,0E0,3.2691915E0,3.6370726E0,1.7795916E0,2.060388E0,1.9804671E0,0E0,0E0,0E0,0E0,0E0,0E0,0E0,0E0,0E0,0E0,0E0],"parents":[2147483647,0,0,1,1,2,2,3,3,5,5,7,7,8,8,9,9,11,11,12,12,14,14,17,17,18,18,19,19,20,20,21,21],"right_children":[2,4,6,8,-1,10,-1,12,14,16,-1,18,20,-1,22,-1,-1,24,26,28,30,32,-1,-1,-1,-1,-1,-1,-1,-1,-1,-1,-1],"split_conditions":[1E0,1E0,3E0,1E0,1.9342503E-1,1E0,-1.6342145E-1,1E0,2E0,1E0,2.4027379E-1,1E0,1E0,-2.8111175E-1,4E0,-2.2226508E-1,1.7991503E-1,3E0,1E0,1E0,6E0,1E0,-2.0995414E-1,-2.0514121E-2,9.093143E-2,-3.4803322E-1,5.6092143E-3,2.4056405E-1,4.7887817E-2,-2.2385773E-1,1.1407202E-1,-8.202535E-3,1.3580878E-1],"split_indices":[27,31,24,12,0,28,0,15,24,2,0,25,28,0,23,0,0,24,18,18,30,21,0,0,0,0,0,0,0,0,0,0,0],"split_type":[0,0,0,0,0,0,0,0,0,0,0,0,0,0,0,0,0,0,0,0,0,0,0,0,0,0,0,0,0,0,0,0,0],"sum_hessian":[2.6083868E2,2.4823288E2,1.2605814E1,2.4643582E2,1.7970557E0,1.0996009E1,1.609805E0,1.9318703E2,5.3248783E1,4.346876E0,6.649133E0,1.7018184E2,2.3005196E1,1.1219864E1,4.202892E1,2.405345E0,1.941531E0,1.6056743E2,9.614414E0,1.8077553E1,4.927643E0,3.8764374E1,3.2645478E0,1.3278018E2,2.778724E1,3.581283E0,6.033131E0,9.952364E0,8.125189E0,2.9972963E0,1.9303465E0,